{"saved_at": "2026-02-19 10:12:03", "trained_models": {"RND": {"MLP_0": {"model_type": "MLP", "architecture": "[64, 64]", "state_dict": {"network.0.weight": [[-0.322635680437088, 0.13082313537597656], [-0.6448025107383728, 0.4426490366458893], [-1.088013768196106, 0.0829201489686966], [0.2603127956390381, -0.38231512904167175], [0.39379674196243286, 0.07900668680667877], [0.34104016423225403, -0.4627511501312256], [-1.0176172256469727, 0.05420050024986267], [-0.5978503227233887, 0.5931744575500488], [0.16513024270534515, -0.056766752153635025], [-0.7172653675079346, 0.4666113257408142], [-0.46160078048706055, 0.866420328617096], [0.29004496335983276, -0.44273537397384644], [-0.4352460205554962, -0.1510678082704544], [0.5819361805915833, -0.5345457792282104], [0.786065399646759, 0.32522502541542053], [-0.8083627223968506, -0.16081935167312622], [0.41565486788749695, 0.6301279664039612], [0.7244052886962891, 0.7695487141609192], [0.932138204574585, 0.38860705494880676], [0.22365395724773407, 0.9155624508857727], [0.9183017611503601, -0.016951335594058037], [-0.6677308678627014, 0.4693080484867096], [0.5397446751594543, -0.3708459138870239], [0.0952051430940628, -0.2667935788631439], [0.04042070358991623, 0.15709839761257172], [0.3870875835418701, -0.6143948435783386], [-0.6226447820663452, 0.5335720181465149], [0.35887131094932556, -0.32024380564689636], [-0.6206991076469421, -0.11937586963176727], [-0.8424843549728394, -0.3358423113822937], [0.07219484448432922, -0.6337991952896118], [0.18763329088687897, 0.6756243109703064], [-0.07850892096757889, 0.0810287594795227], [0.7315000891685486, -0.5127944350242615], [-0.651630699634552, -0.438741534948349], [-0.519883930683136, -0.10251280665397644], [-0.7200568914413452, 0.37058207392692566], [0.09850340336561203, 0.647842288017273], [0.5456605553627014, -0.12942451238632202], [-0.8467956185340881, 0.3309912383556366], [0.26205384731292725, 0.8602256178855896], [0.2927522659301758, 0.7641724944114685], [-0.5125495791435242, 0.7637702822685242], [-0.7473586201667786, -0.1928432583808899], [-0.15621821582317352, 0.5521857142448425], [-0.14492134749889374, -0.49472662806510925], [-0.5564120411872864, -0.12531600892543793], [0.29539164900779724, -0.6422213912010193], [0.8324119448661804, -0.1915370225906372], [-1.1061244010925293, -0.20553481578826904], [-0.1373164802789688, 0.13893675804138184], [0.16216564178466797, -0.16099245846271515], [0.8331510424613953, 0.8902894258499146], [-0.9435655474662781, -0.6276479363441467], [-0.35969844460487366, -0.41534721851348877], [0.07876090705394745, 0.0135432044044137], [-0.6015560626983643, -0.685045063495636], [0.516842782497406, -0.15135428309440613], [-0.3885195851325989, 0.8662486672401428], [0.06598753482103348, -0.472520112991333], [-0.9258983731269836, -0.18365523219108582], [0.3494611084461212, -0.7359890937805176], [-0.26669836044311523, 0.9097040295600891], [-0.03233170509338379, -0.24349743127822876]], "network.0.bias": [0.26967427134513855, -0.4259937107563019, 0.40727218985557556, -0.547369122505188, -0.05918515473604202, -0.6916857361793518, 0.35790374875068665, -0.3243948221206665, -0.7065929770469666, -0.07305611670017242, -0.4598560631275177, 0.8415136933326721, 0.325160950422287, 0.30054399371147156, -0.28790614008903503, -0.33363938331604004, 0.8093292713165283, 0.01916545256972313, -0.34483829140663147, -0.482819139957428, 0.30034834146499634, -0.4387149512767792, -0.29123225808143616, 0.6919562816619873, -0.47284814715385437, -0.8312622904777527, -0.3877710998058319, 0.39257222414016724, -0.2374323010444641, 0.057231154292821884, -0.7321535348892212, 0.29193538427352905, -0.33774179220199585, -0.8309369683265686, -0.36549609899520874, -0.1939319372177124, -0.15349788963794708, -0.21687103807926178, 0.3056555390357971, 0.6567857265472412, 0.15746158361434937, 0.3294256925582886, -0.5060019493103027, 0.8011272549629211, 0.7178418040275574, 0.10271778702735901, -0.1883532851934433, 0.5368170142173767, -0.02625393122434616, 0.18260884284973145, 0.7366113066673279, -0.6725162863731384, 0.02318539284169674, -0.6056896448135376, -0.03820086643099785, 0.2892560064792633, -0.22632969915866852, -0.4246649146080017, -0.5649940967559814, -0.5855095982551575, 0.13304300606250763, 0.03097776509821415, -0.4856778681278229, -0.7993718385696411], "network.2.weight": [[0.11557232588529587, 0.40504583716392517, 0.05157259851694107, -0.34933289885520935, 0.029099401086568832, -0.44315338134765625, 0.014604642055928707, 0.04960193112492561, 0.14286565780639648, 0.043561410158872604, 0.20093286037445068, -0.2193111777305603, 0.11981986463069916, 0.17184549570083618, -0.03239011764526367, 0.5872958898544312, -0.19765236973762512, 0.057573847472667694, -0.2051510214805603, 0.3861696720123291, 0.04888179898262024, 0.30329009890556335, -0.2448383867740631, -0.10324966907501221, 0.06937431544065475, -0.3005468547344208, 0.3600035607814789, -0.1996258646249771, 0.4300655722618103, 0.08333756029605865, 0.021231170743703842, 0.015408704988658428, 0.09553126990795135, -0.5093364715576172, 0.2654969394207001, 0.5937228202819824, -0.01845196820795536, 0.26291540265083313, -0.1589156836271286, -0.04460519179701805, 0.08986708521842957, 0.016787035390734673, 0.35579392313957214, -0.03554186224937439, -0.04598505422472954, 0.07952473312616348, 0.25218117237091064, -0.07324523478746414, -0.3768477439880371, 0.14764343202114105, 0.01166995707899332, 0.0922703891992569, 0.18295924365520477, 0.4996657967567444, 0.1862466037273407, -0.2029036283493042, 0.41953814029693604, -0.2042752355337143, 0.17229215800762177, -0.027596671134233475, 0.16117258369922638, 0.07418596744537354, 0.39976686239242554, 0.016410181298851967], [0.3897158205509186, -0.39539986848831177, 0.2099592238664627, 0.35098031163215637, 0.23225338757038116, 0.3787882626056671, 0.3262161612510681, -0.18714439868927002, -0.13021983206272125, 0.05471208319067955, -0.2420121431350708, -0.04403610900044441, -0.0417824313044548, -0.11439121514558792, 0.18273311853408813, -0.6691963076591492, 0.002023699227720499, 0.22841474413871765, 0.4297235608100891, -0.2395707368850708, -0.18544015288352966, -0.18036101758480072, 0.03451347351074219, 0.07273656874895096, 0.04394686594605446, 0.3253864645957947, -0.40948835015296936, 0.011428113095462322, -0.5214401483535767, 0.0702468603849411, 0.09291975200176239, 0.22017832100391388, 0.07877788692712784, 0.44182923436164856, -0.057881731539964676, -0.4498875141143799, -0.06278054416179657, -0.2963572144508362, -0.13833239674568176, 0.2612323760986328, 0.21741783618927002, 0.03673853725194931, -0.3890869617462158, 0.10533249378204346, 0.16379354894161224, -0.07727351039648056, -0.1132679134607315, -0.06746723502874374, -0.023072952404618263, 0.40146058797836304, 0.12318561971187592, -0.02205081656575203, 0.29859670996665955, -0.047603048384189606, 0.0788348913192749, -0.09002908319234848, -0.050992511212825775, 0.5749093294143677, -0.3694690465927124, 0.09269887953996658, 0.3871791660785675, -0.055127955973148346, -0.32981395721435547, 0.04748320206999779], [-0.33064839243888855, 0.19920481741428375, -0.09119740128517151, -0.24696588516235352, -0.3797297775745392, -0.4486615061759949, -0.24251624941825867, 0.23772479593753815, 0.03828048333525658, 0.0654977485537529, 0.2220846563577652, 0.13930438458919525, 0.04010682553052902, 0.15628458559513092, -0.23781903088092804, 0.5787695646286011, -0.00040546353557147086, -0.2644815742969513, -0.6075795888900757, 0.3992326855659485, 0.28216588497161865, 0.14743201434612274, 0.1669137179851532, 0.0767020732164383, 0.048888493329286575, -0.3877045512199402, 0.24350059032440186, 0.2152591347694397, 0.48070228099823, -0.1285391002893448, -0.08125332742929459, -0.022369954735040665, 0.03294284641742706, -0.49168291687965393, 0.013741683214902878, 0.5252152681350708, 0.18738771975040436, 0.25101161003112793, 0.10436584800481796, -0.05386877804994583, -0.021303247660398483, -0.048311471939086914, 0.2365998923778534, -0.05193827673792839, -0.038583334535360336, -0.02190704271197319, 0.21993090212345123, 0.09037252515554428, 0.09010028839111328, -0.25878506898880005, 0.1317279040813446, -0.07974964380264282, -0.220358207821846, 0.3175460398197174, -0.12179290503263474, 0.15809579193592072, 0.047832801938056946, -0.5290572643280029, 0.14061415195465088, -0.11494730412960052, -0.30281344056129456, 0.09218213707208633, 0.16077467799186707, -0.023107342422008514], [0.42893654108047485, -0.2502690851688385, 0.4103267788887024, 0.3445044457912445, 0.3387611210346222, 0.4991023540496826, 0.22605182230472565, -0.17166349291801453, -0.026398662477731705, -0.07151617854833603, -0.19930940866470337, 0.023567156866192818, 0.04535076394677162, -0.055273476988077164, 0.29535022377967834, -0.44432777166366577, 0.04971756413578987, 0.3121783137321472, 0.5855942964553833, -0.41145551204681396, -0.05648978427052498, -0.23276899755001068, -0.04468094930052757, -0.0987979918718338, -0.052618782967329025, 0.29219862818717957, -0.4426755905151367, -0.10368576645851135, -0.5845958590507507, 0.20515258610248566, 0.17027068138122559, 0.17142537236213684, 0.11242504417896271, 0.40219351649284363, 0.06969128549098969, -0.4307708442211151, -0.062052514404058456, -0.3422618806362152, -0.1032494604587555, 0.2784697115421295, 0.19818799197673798, 0.11211410909891129, -0.24950693547725677, 0.011566169559955597, 0.14891615509986877, -0.06026006117463112, -0.1643747240304947, -0.1539229154586792, -0.08148463815450668, 0.21939554810523987, 0.15160046517848969, -0.14495384693145752, 0.32212477922439575, -0.2627756595611572, 0.1503218561410904, -0.12060031294822693, 0.11835819482803345, 0.6492393016815186, -0.28330671787261963, 0.20885850489139557, 0.28542500734329224, 0.04776865988969803, -0.1873043030500412, 0.07293788343667984], [0.014919216744601727, 0.4468196928501129, 0.07807756960391998, -0.23589268326759338, -0.07616202533245087, -0.3771502375602722, 0.003174427431076765, 0.2885902523994446, 0.10706225782632828, -0.031398870050907135, 0.15519340336322784, -0.1869804710149765, 0.036914464086294174, 0.046475913375616074, -0.14659421145915985, 0.4919884502887726, -0.14343242347240448, 0.10235132277011871, -0.017936866730451584, 0.41610121726989746, -0.12353812158107758, 0.2989981174468994, -0.12467987090349197, -0.17729038000106812, 0.009990115649998188, -0.3483545184135437, 0.49945610761642456, 0.02101423591375351, 0.502560019493103, 0.033265385776758194, -0.059907086193561554, -0.022606339305639267, 0.11106623709201813, -0.569113552570343, 0.16092528402805328, 0.5427489876747131, 0.061265695840120316, 0.3083929419517517, 0.02705559879541397, -0.09633305668830872, 0.10904062539339066, 0.040592093020677567, 0.3331098258495331, -0.00818959902971983, -0.07232292741537094, 0.19592531025409698, 0.30417609214782715, -0.0333070307970047, -0.47655487060546875, 0.06411126255989075, -0.0017550843767821789, 0.1321018934249878, 0.24125061929225922, 0.3769102692604065, 0.2961759567260742, 0.001932922750711441, 0.3832353949546814, 0.0022372938692569733, 0.33936184644699097, -0.09771928936243057, 0.12322705239057541, 0.09813816100358963, 0.2692500650882721, 0.20214535295963287], [-0.12675341963768005, 0.09849043190479279, -0.2548709213733673, -0.30699440836906433, -0.26468220353126526, -0.4472491145133972, -0.23611235618591309, 0.1802016943693161, -0.05453250929713249, 0.10788486152887344, 0.20305441319942474, -0.003863006830215454, 0.027918584644794464, 0.22400522232055664, -0.21516980230808258, 0.45597782731056213, 0.01808856800198555, -0.08899799734354019, -0.35345861315727234, 0.2639324367046356, 0.2207535058259964, 0.2943686246871948, 0.13942685723304749, 0.07440675050020218, 0.033989571034908295, -0.29476433992385864, 0.23492418229579926, 0.0416325218975544, 0.43159788846969604, 0.0034104944206774235, 0.055077485740184784, 0.07702114433050156, -0.029114820063114166, -0.37168437242507935, 0.18461747467517853, 0.5142675042152405, 0.11274122446775436, 0.29789695143699646, 0.1430630087852478, -0.08225677162408829, 0.008074671030044556, 0.07955316454172134, 0.18674221634864807, 0.09277379512786865, -0.11289256066083908, 0.1548808068037033, 0.2225717455148697, 0.22902651131153107, 0.03991975635290146, -0.2742108702659607, -0.0322815403342247, -0.03390295058488846, -0.09926040470600128, 0.3055042624473572, -0.09399551153182983, -0.011699225753545761, -0.10515212267637253, -0.41169974207878113, 0.33916157484054565, -0.183308407664299, -0.049172189086675644, 0.007070072926580906, 0.1771697849035263, -0.046880003064870834], [-0.306064248085022, 0.22052522003650665, -0.09649424999952316, -0.30613481998443604, -0.20976309478282928, -0.5237717032432556, -0.08469446748495102, 0.2783408463001251, 0.029597414657473564, 0.13486145436763763, 0.2210615873336792, 0.021737869828939438, 0.0481334812939167, 0.2748550772666931, -0.43900763988494873, 0.49792277812957764, 0.04355958104133606, -0.20436352491378784, -0.4620741903781891, 0.33335596323013306, 0.31535595655441284, 0.2533673644065857, 0.21019624173641205, 0.16410863399505615, -0.1732439547777176, -0.3447703719139099, 0.29689475893974304, 0.2582528293132782, 0.5181589126586914, -0.02590223401784897, -0.04940464720129967, 0.13377481698989868, -0.1826954036951065, -0.4757445156574249, 0.13090795278549194, 0.4115602970123291, -0.029561225324869156, 0.2384803295135498, 0.10465533286333084, -0.25972190499305725, -0.12340176105499268, -0.011247544549405575, 0.220387801527977, -0.0886438712477684, -0.1587040275335312, 0.09382647275924683, 0.26072123646736145, 0.06803878396749496, 0.026170598343014717, -0.14318744838237762, 0.21296221017837524, -0.12078854441642761, -0.15481385588645935, 0.35154440999031067, -0.0785871371626854, 0.17388539016246796, -0.025952760130167007, -0.7106019258499146, 0.23064717650413513, -0.20787586271762848, -0.3274987041950226, 0.12096460163593292, 0.4411501884460449, -0.0023093840572983027], [0.34510716795921326, -0.4048159122467041, 0.410169392824173, 0.1478685587644577, 0.37086182832717896, 0.4579958915710449, 0.20897196233272552, -0.11004194617271423, 0.04318160563707352, -0.029762528836727142, -0.2905988097190857, 0.0928286612033844, 0.10955462604761124, -0.11862301081418991, 0.3064976930618286, -0.6284075975418091, -0.01210255641490221, 0.09853731840848923, 0.46652278304100037, -0.34139111638069153, -0.03245487064123154, -0.2016075700521469, -0.005049192812293768, -0.030859390273690224, -0.031376153230667114, 0.22570204734802246, -0.33621251583099365, -0.04566871374845505, -0.450824499130249, 0.046771857887506485, -0.0013886576052755117, 0.2075478434562683, -0.020288169384002686, 0.2517175078392029, -0.0525633804500103, -0.40836575627326965, 0.009377796202898026, -0.11480863392353058, -0.16004407405853271, 0.2363053858280182, 0.2374197095632553, 0.10443511605262756, -0.23179979622364044, 0.06891153752803802, 0.2426840364933014, -0.04319914057850838, -0.18124598264694214, -0.03262583166360855, -0.03159090504050255, 0.20328931510448456, 0.04147939011454582, -0.18191930651664734, 0.11720632016658783, -0.17986822128295898, 0.029188599437475204, 0.03540428727865219, 0.032248590141534805, 0.5261993408203125, -0.23647841811180115, 0.19574372470378876, 0.3470584452152252, 0.010195725597441196, -0.35217738151550293, -0.08629016578197479], [-0.13059751689434052, 0.09829147905111313, -0.0707605630159378, -0.23989328742027283, -0.2296045869588852, -0.46024441719055176, -0.12226173281669617, 0.14451472461223602, -0.07240397483110428, 0.0513724684715271, 0.17963503301143646, 0.18803398311138153, -0.01120996568351984, 0.1701216846704483, -0.28604283928871155, 0.500491738319397, 0.053046684712171555, -0.17067795991897583, -0.4670797288417816, 0.37249186635017395, 0.2099464237689972, 0.15142154693603516, -0.06210748478770256, 0.04642294719815254, -0.13281291723251343, -0.34057655930519104, 0.235884889960289, 0.2317570447921753, 0.39621701836586, -0.11583039164543152, -0.05515330284833908, -0.1184995099902153, -0.14750118553638458, -0.38251805305480957, 0.09838545322418213, 0.5448649525642395, 0.13797368109226227, 0.3921469449996948, 0.18010585010051727, -0.08690695464611053, 0.004676541313529015, 0.10441740602254868, 0.19166861474514008, -0.05988645181059837, -0.12912558019161224, 0.07708366215229034, 0.13248741626739502, 0.19763149321079254, 0.13827678561210632, -0.24836723506450653, -0.01808633841574192, -0.1100471243262291, -0.14929106831550598, 0.20851710438728333, -0.015267778187990189, -0.0036253391299396753, -0.09149786084890366, -0.4822726547718048, 0.10840028524398804, -0.2129814475774765, -0.1276365965604782, 0.1615370512008667, 0.33588695526123047, -0.18567165732383728], [-0.16375695168972015, 0.32977646589279175, -0.11873014271259308, -0.13420701026916504, -0.29797184467315674, -0.4514343738555908, -0.04994950816035271, 0.07808353751897812, -0.12618455290794373, -0.014093653298914433, 0.07460063695907593, 0.07824290543794632, 0.01812739297747612, 0.14803124964237213, -0.3346019387245178, 0.5587940216064453, 0.1460651308298111, -0.14743617177009583, -0.4227553904056549, 0.2752649784088135, 0.2758637070655823, 0.27529338002204895, 0.1462072730064392, -0.03035532310605049, -0.05043800547719002, -0.3696821331977844, 0.2696889638900757, 0.10839845985174179, 0.3682462275028229, -0.17046481370925903, -0.010797254741191864, -0.0373171791434288, 0.00968103390187025, -0.45818236470222473, 0.08023075759410858, 0.4730209410190582, 0.016954446211457253, 0.2379673570394516, 0.22492434084415436, -0.15010422468185425, 0.039720550179481506, 0.00678427005186677, 0.27620959281921387, 0.1231425479054451, -0.09879041463136673, 0.17405308783054352, 0.2645764648914337, 0.10732438415288925, 0.15193554759025574, -0.26811447739601135, 0.03856590390205383, 0.012308293022215366, -0.2185533046722412, 0.15735560655593872, 0.007347532082349062, -0.009433303959667683, -0.05961231142282486, -0.4413837492465973, 0.21779030561447144, -0.13857540488243103, -0.1093914583325386, 0.19140736758708954, 0.2006157487630844, -0.02189788781106472], [-0.2903411388397217, 0.2552129924297333, -0.07942617684602737, -0.13198505342006683, -0.25549575686454773, -0.5204067230224609, -0.12520278990268707, 0.18076975643634796, 0.04152655601501465, 0.15800918638706207, 0.17861640453338623, 0.19057486951351166, -0.08574016392230988, 0.2395828813314438, -0.4924201965332031, 0.5411078333854675, 0.05055207386612892, -0.14902006089687347, -0.5846510529518127, 0.3406811058521271, 0.19889073073863983, 0.23660540580749512, 0.046156588941812515, -0.01101178489625454, -0.11904681473970413, -0.32048988342285156, 0.437284380197525, 0.25023332238197327, 0.5398358106613159, -0.01577090471982956, -0.16843441128730774, -0.06635075807571411, 0.021053284406661987, -0.48810452222824097, -0.02845955453813076, 0.3690302073955536, -0.007559863850474358, 0.39557042717933655, 0.12468413263559341, -0.18476301431655884, 0.0632171481847763, 0.02068505436182022, 0.2905285060405731, 0.06964761763811111, -0.18005229532718658, 0.14878907799720764, 0.08406710624694824, 0.2222970873117447, 0.1997181624174118, -0.1787666529417038, 0.10028120875358582, -0.058450739830732346, -0.0211762897670269, 0.1148371547460556, -0.12992700934410095, 0.06329705566167831, -0.09374216943979263, -0.6063510775566101, 0.3459811210632324, -0.11798110604286194, -0.07242446392774582, 0.1443890929222107, 0.37016817927360535, -0.013759150169789791], [-0.28139612078666687, 0.09361902624368668, -0.15930487215518951, -0.13203299045562744, -0.10842332988977432, -0.26553377509117126, -0.07280408591032028, -0.0033543675672262907, -0.006099797785282135, -0.01572560891509056, 0.06125102937221527, 0.12346392124891281, -0.06280837953090668, 0.07775168865919113, -0.2712169587612152, 0.4121898114681244, -0.05660688504576683, -0.207044318318367, -0.44515931606292725, 0.44050124287605286, 0.21109750866889954, 0.06433910876512527, 0.10014982521533966, 0.09581200033426285, -0.10659035295248032, -0.2385600060224533, 0.3889387547969818, 0.17483079433441162, 0.25248900055885315, 0.035754796117544174, -0.05472005531191826, 0.012412833981215954, -0.007677935995161533, -0.2961948812007904, 0.081650510430336, 0.4778648912906647, 0.10590827465057373, 0.16811588406562805, 0.09970156848430634, -0.12495508044958115, -0.008105549961328506, 0.014729337766766548, 0.1408124417066574, 0.054765477776527405, -0.010542980395257473, 0.05648687481880188, 0.06077554076910019, 0.09512574225664139, 0.011203340254724026, -0.0356251485645771, 0.12151440232992172, -0.06990528851747513, -0.01920432411134243, 0.17723822593688965, -0.09412980824708939, 0.1624002754688263, -0.1079993024468422, -0.4156423509120941, 0.31585437059402466, -0.03631165251135826, -0.23488979041576385, 0.0907229483127594, 0.19265148043632507, -0.08135583251714706], [0.01752731204032898, 0.2577780485153198, -0.014497902244329453, -0.279335081577301, -0.08361488580703735, -0.5002514719963074, -0.08006628602743149, 0.22904746234416962, 0.04602991044521332, 0.10641477257013321, 0.19873128831386566, -0.010266655124723911, 0.06824154406785965, 0.07541608810424805, -0.12270087003707886, 0.5499776601791382, -0.2350880354642868, 0.17407825589179993, -0.19255277514457703, 0.529000997543335, -0.0008270796970464289, 0.33437374234199524, -0.15882882475852966, -0.10314970463514328, -0.0012401393614709377, -0.2696327567100525, 0.4995482265949249, -0.017257142812013626, 0.42675983905792236, 0.12219259887933731, 0.03841881826519966, -0.011618204414844513, 0.074384406208992, -0.5516911149024963, 0.18398639559745789, 0.6116591095924377, 0.16592831909656525, 0.2671825587749481, -0.11530064791440964, -0.001345377997495234, -0.001875754096545279, 0.06934864819049835, 0.3727273643016815, 0.03680246323347092, -0.22542959451675415, -0.0009099977323785424, 0.2297947108745575, 0.04061876982450485, -0.31362825632095337, 0.13345122337341309, -0.09940625727176666, -0.034429024904966354, 0.33908942341804504, 0.4167901575565338, 0.040395915508270264, 0.049749795347452164, 0.3063562214374542, -0.01881406083703041, 0.35066768527030945, -0.20146101713180542, -0.018677709624171257, 0.05781988427042961, 0.33312326669692993, -0.04050637409090996], [-0.027703937143087387, -0.1826479285955429, -0.08322608470916748, 0.32915809750556946, 0.3714987337589264, 0.4439401626586914, -0.23590461909770966, -0.34060075879096985, 0.15010716021060944, -0.1871345341205597, -0.21204476058483124, -0.0401836633682251, -0.08678018301725388, 0.12222203612327576, 0.36201775074005127, -0.015314625576138496, 0.15602782368659973, 0.3351348638534546, 0.5090855360031128, -0.4305778741836548, -0.013301481492817402, -0.29647374153137207, 0.1284756064414978, -0.06918127834796906, 0.050096262246370316, 0.33543211221694946, -0.31075966358184814, 0.11857946217060089, -0.053683970123529434, -0.0985814556479454, 0.21077723801136017, 0.22479449212551117, -0.019703513011336327, 0.44398921728134155, 0.2686834931373596, 0.2242790311574936, -0.18746143579483032, -0.19250445067882538, 0.017723390832543373, -0.11419107764959335, 0.16165444254875183, 0.16511835157871246, -0.17374160885810852, -0.17826256155967712, 0.23713943362236023, -0.06830086559057236, 0.07597030699253082, -0.10305842012166977, 0.05478682368993759, -0.11280129104852676, -0.16962771117687225, 0.08895185589790344, 0.33368146419525146, 0.25063005089759827, 0.09403501451015472, -0.08036913722753525, 0.04066542908549309, 0.7051475644111633, -0.237821564078331, 0.19425758719444275, 0.16422903537750244, 0.08349641412496567, -0.17011332511901855, 0.1493293046951294], [0.4391271770000458, -0.29865092039108276, 0.41657382249832153, 0.4270768463611603, 0.4237627685070038, 0.38736459612846375, 0.28027746081352234, -0.13796724379062653, -0.011438870802521706, -0.028093397617340088, -0.20889878273010254, -0.11132803559303284, 0.022072693333029747, -0.12136710435152054, 0.5206001996994019, -0.6462435126304626, 0.03554742783308029, 0.22442305088043213, 0.601834237575531, -0.34984174370765686, -0.27254557609558105, -0.30563411116600037, 0.03891889378428459, -0.02831205166876316, 0.05980819836258888, 0.44046327471733093, -0.41213133931159973, -0.12360019236803055, -0.5216571092605591, 0.1484978199005127, 0.02495511993765831, 0.16382639110088348, -0.02361520566046238, 0.3984791338443756, 0.07464668154716492, -0.5727200508117676, -0.12437649071216583, -0.3261951208114624, -0.09927711635828018, 0.3212432265281677, 0.24682028591632843, 0.08547615259885788, -0.33759012818336487, 0.03437713533639908, 0.28997963666915894, 0.09659510105848312, -0.056313253939151764, -0.11719979345798492, 0.0007619245443493128, 0.2416636347770691, 0.15820543467998505, -0.020186562091112137, 0.277788370847702, -0.0705740749835968, 0.21530672907829285, 0.10160257667303085, 0.1977531760931015, 0.6935632824897766, -0.3871080279350281, 0.15968762338161469, 0.35302916169166565, 0.07237175107002258, -0.24925601482391357, 0.04219839721918106], [-0.1614842712879181, 0.20472294092178345, -0.0958394929766655, -0.13516023755073547, -0.26465579867362976, -0.4335051476955414, -0.025845367461442947, 0.06138632819056511, -0.1372445523738861, 0.02622334286570549, 0.019988764077425003, 0.10307647287845612, -0.10683328658342361, 0.2324603796005249, -0.06457243114709854, 0.29788482189178467, 0.019200481474399567, -0.20667670667171478, -0.25218090415000916, 0.3191855549812317, 0.1443113386631012, 0.15624430775642395, 0.08513181656599045, 0.07044219225645065, -0.16230365633964539, -0.16727611422538757, 0.2605549693107605, -0.0044445437379181385, 0.4387611448764801, 0.034907545894384384, -0.07754290103912354, -0.023302219808101654, 0.05623602494597435, -0.17138119041919708, 0.0969327837228775, 0.4140850305557251, 0.01595422253012657, 0.22441227734088898, 0.008035521022975445, -0.10011480748653412, 0.011094711720943451, -0.008986646309494972, 0.11881459504365921, 0.11042024940252304, -0.14516527950763702, -0.06653567403554916, 0.2075418084859848, -0.004276292398571968, 0.019045306369662285, -0.07167410850524902, 0.11601309478282928, 0.013822310604155064, -0.1249927282333374, 0.07343889772891998, 0.044777270406484604, 0.1215771958231926, -0.05671616271138191, -0.42281991243362427, 0.24477232992649078, -0.03913811966776848, -0.05281553417444229, 0.062103938311338425, 0.21472936868667603, 0.003778660437092185], [0.3495367169380188, -0.33099809288978577, 0.3676075041294098, 0.1941893845796585, 0.27303099632263184, 0.4827596843242645, 0.2215370237827301, -0.08744988590478897, 0.044809501618146896, 0.043295811861753464, -0.15307989716529846, 0.05528512969613075, 0.16582976281642914, -0.13591423630714417, 0.2812720537185669, -0.629671037197113, 0.07647338509559631, 0.17603132128715515, 0.5252484083175659, -0.48082485795021057, -0.11529936641454697, -0.24431347846984863, 0.01420984510332346, 0.08152825385332108, -0.03409416973590851, 0.38593798875808716, -0.2983025312423706, -0.15126849710941315, -0.46618226170539856, 0.04548981785774231, 0.07180594652891159, 0.011868959292769432, -0.036324795335531235, 0.38865721225738525, -0.03491360694169998, -0.5494429469108582, -0.010685018263757229, -0.2763766944408417, -0.014146591536700726, 0.20017297565937042, 0.1920216828584671, 0.030397208407521248, -0.2328711897134781, -0.04834890365600586, 0.21659491956233978, -0.014177506789565086, -0.046774301677942276, -0.02704271674156189, -0.11182883381843567, 0.27502867579460144, 0.09490211308002472, 0.01373753510415554, 0.21620549261569977, -0.30902764201164246, 0.10619652271270752, -0.0387984961271286, -0.0365668423473835, 0.5368756055831909, -0.40969857573509216, 0.16171029210090637, 0.41455185413360596, -0.00959809124469757, -0.36905524134635925, 0.061988916248083115], [0.0757850632071495, 0.37116312980651855, -0.009430516511201859, -0.4729646146297455, -0.18606789410114288, -0.43036556243896484, 0.013012128882110119, 0.2575856149196625, 0.006394143216311932, -0.046336326748132706, 0.23023377358913422, -0.19154107570648193, -0.10699412226676941, -0.007840100675821304, -0.17806310951709747, 0.47021275758743286, -0.12145113945007324, 0.2571214735507965, -0.02152097038924694, 0.3584999144077301, -0.09566859900951385, 0.14422792196273804, -0.07680389285087585, -0.10010229051113129, 0.022263191640377045, -0.3687816560268402, 0.418062299489975, -0.0025317471008747816, 0.5481261610984802, 0.021962858736515045, -0.01476046908646822, -0.10121867060661316, -0.06486979126930237, -0.37933221459388733, 0.35520294308662415, 0.5776539444923401, 0.09262101352214813, 0.21995657682418823, -0.06024301424622536, -0.02327149175107479, -0.008733909577131271, 0.09226372838020325, 0.34065747261047363, -0.04280371218919754, -0.12579141557216644, 0.21132305264472961, 0.3636241853237152, -0.03332106024026871, -0.4717239439487457, 0.16920068860054016, -0.010246150195598602, 0.1587405502796173, 0.13955830037593842, 0.475713312625885, 0.16272586584091187, -0.19329310953617096, 0.25827860832214355, -0.05007883533835411, 0.3209213614463806, -0.07373585551977158, 0.1824931502342224, 0.12443961203098297, 0.27907487750053406, -0.04788946732878685], [0.33357900381088257, -0.20094376802444458, 0.2546500861644745, 0.16066639125347137, 0.3709571957588196, 0.41431620717048645, 0.19989711046218872, -0.19887851178646088, -0.015803901478648186, 0.042582664638757706, -0.1818389892578125, 0.009755595587193966, 0.08282823860645294, 0.000892932468559593, 0.3173820972442627, -0.4060739576816559, 0.10288313031196594, 0.19040440022945404, 0.36926373839378357, -0.43636542558670044, -0.1827104240655899, -0.14748606085777283, -0.051089510321617126, 0.03759322315454483, -0.10478980839252472, 0.17194458842277527, -0.3341040015220642, -0.010764465667307377, -0.4767139256000519, 0.10406328737735748, 0.12174209207296371, 0.17197337746620178, -0.006627220194786787, 0.4719039797782898, 0.035576026886701584, -0.38354921340942383, -0.04856554791331291, -0.3261224329471588, -0.18816407024860382, 0.3230389356613159, 0.1725829839706421, 0.010176527313888073, -0.12691909074783325, 0.14095237851142883, 0.3049784302711487, 0.018697867169976234, -0.1668107658624649, -0.14591658115386963, 0.12245777249336243, 0.1745956540107727, -0.01991872489452362, -0.03838353976607323, 0.16988089680671692, -0.30341410636901855, 0.15923206508159637, 0.03548368066549301, 0.08459844440221786, 0.6056804656982422, -0.32744792103767395, 0.1205722838640213, 0.2387629598379135, -0.1359795778989792, -0.16419431567192078, -0.06513849645853043], [0.3827015161514282, -0.062284037470817566, 0.18433842062950134, 0.44144803285598755, 0.4125713109970093, 0.42744070291519165, 0.28593358397483826, 0.01459041703492403, -0.04036405682563782, 0.08973035216331482, -0.08589990437030792, -0.11912017315626144, 0.07287734746932983, 0.023707494139671326, 0.44218677282333374, -0.43537142872810364, 0.000604235683567822, 0.21774239838123322, 0.6193892359733582, -0.48738592863082886, -0.24353529512882233, -0.25669124722480774, 0.13153721392154694, -0.056513462215662, 0.09257440268993378, 0.3316747546195984, -0.3437374234199524, -0.13211476802825928, -0.41024249792099, 0.12841634452342987, 0.2836911082267761, 0.03430447354912758, -0.03830418735742569, 0.40154051780700684, -0.11175066977739334, -0.2593786120414734, -0.08701101690530777, -0.2586404085159302, -0.1402140110731125, 0.30672740936279297, 0.20890313386917114, 0.010223968885838985, -0.2995706796646118, 0.139582559466362, 0.14702408015727997, 0.03882202133536339, -0.26714634895324707, -0.08962229639291763, 0.1619091033935547, 0.18143005669116974, 0.031622808426618576, 0.010428204201161861, 0.30850642919540405, -0.07729794830083847, 0.01065188180655241, 0.08755526691675186, 0.04735904559493065, 0.7014903426170349, -0.08969356119632721, 0.3149750232696533, 0.3579941391944885, 0.05172313004732132, -0.3036916255950928, 0.13480877876281738], [-0.051901161670684814, 0.09211269021034241, 0.08145751804113388, -0.20407648384571075, -0.04369255155324936, -0.14504006505012512, 0.11278703808784485, 0.07720565795898438, -0.0060189878568053246, 0.13592495024204254, 0.1924285590648651, -0.16890157759189606, 0.11670534312725067, 0.04928971827030182, -0.028809383511543274, 0.2748788595199585, -0.08774732798337936, 0.07645060122013092, -0.01435691025108099, 0.2307472676038742, 0.003958350978791714, 0.27306807041168213, -0.12885336577892303, -0.09057161957025528, -0.026804767549037933, -0.23752908408641815, 0.41600140929222107, 0.0214924905449152, 0.37293100357055664, 0.18987677991390228, -0.003925930708646774, 0.0628664419054985, -0.04486888647079468, -0.12890133261680603, 0.18104548752307892, 0.33356401324272156, -0.001448343275114894, 0.39900195598602295, 0.01799379475414753, 0.030078044161200523, -0.0916169136762619, -0.008409312926232815, 0.1749078631401062, -0.06806768476963043, -0.11978884786367416, -0.009166094474494457, 0.21910825371742249, -0.0014129664050415158, 0.008652023039758205, 0.12727835774421692, -0.14294441044330597, 0.1542171686887741, 0.0884438157081604, 0.3402135968208313, 0.05269549414515495, -0.1584787666797638, 0.2012161761522293, -0.1784054934978485, 0.1708749532699585, -0.04824760928750038, 0.14993539452552795, -0.016088899224996567, 0.14910267293453217, 0.218248650431633], [0.2177584171295166, -0.31763795018196106, -0.20145295560359955, 0.4421127736568451, 0.5464643836021423, 0.608894407749176, -0.09135208278894424, -0.34658321738243103, 0.17216522991657257, -0.3043226897716522, -0.4226180613040924, -0.03146396204829216, -0.06343231350183487, 0.06528539955615997, 0.4159449636936188, -0.168295219540596, 0.16890843212604523, 0.2494901865720749, 0.7080519199371338, -0.4107286036014557, -0.021025991067290306, -0.32871437072753906, 0.018888164311647415, -0.06257172673940659, 0.03465965762734413, 0.41594672203063965, -0.43453097343444824, 0.06808789074420929, -0.025749607011675835, -0.012297779321670532, 0.21352596580982208, 0.29500752687454224, 0.0844348892569542, 0.4918351173400879, 0.22784876823425293, 0.21426326036453247, -0.25996875762939453, -0.11980446428060532, -0.037059005349874496, -0.04521041363477707, 0.34959715604782104, 0.2511586844921112, -0.48207440972328186, -0.15529274940490723, 0.14398431777954102, -0.046607475727796555, 0.11444424092769623, -0.1258242130279541, 0.05011584982275963, -0.20146715641021729, -0.19390588998794556, 0.2242848128080368, 0.4032309949398041, 0.3390507996082306, 0.009474782273173332, 0.07254405319690704, 0.0917990431189537, 0.7460984587669373, -0.46696409583091736, 0.2293476164340973, -0.1328493058681488, 0.1653909683227539, -0.3134744465351105, 0.22365142405033112], [0.25477904081344604, -0.2089112401008606, -0.1668686866760254, 0.2303576022386551, 0.36363938450813293, 0.45170557498931885, -0.3188830316066742, -0.3484961986541748, 0.12324999272823334, -0.2614748477935791, -0.30264562368392944, -0.11524277925491333, -0.05919000133872032, 0.07746732234954834, 0.39229652285575867, -0.03191504627466202, 0.21231311559677124, 0.3069484233856201, 0.6256163120269775, -0.1329566091299057, 0.053472694009542465, -0.333175927400589, 0.18400175869464874, 0.0291771050542593, -0.04230906814336777, 0.29453244805336, -0.4004741311073303, -0.057047393172979355, -0.10574007779359818, -0.014766528271138668, 0.28882914781570435, 0.31876176595687866, -0.006531146354973316, 0.4220319092273712, 0.20636999607086182, 0.2000475525856018, -0.41064736247062683, 0.019689368084073067, -0.027229392901062965, -0.21850574016571045, 0.1783813089132309, 0.3477049469947815, -0.33309096097946167, -0.09268786013126373, 0.07145891338586807, 0.10015403479337692, 0.008081657811999321, -0.0968165174126625, 0.20065228641033173, -0.012510411441326141, -0.11268162727355957, 0.28388383984565735, 0.2740592062473297, 0.32124802470207214, -0.05903901904821396, -0.041610103100538254, 0.055807311087846756, 0.5829134583473206, -0.2606455683708191, 0.38151806592941284, 0.06358344852924347, 0.06913142651319504, -0.2840350866317749, 0.06319098174571991], [-0.10769908875226974, 0.18795059621334076, -0.21493513882160187, -0.29002833366394043, -0.451312392950058, -0.5071101784706116, -0.2476402372121811, 0.23513004183769226, -0.13581225275993347, -0.027342379093170166, 0.2221665382385254, 0.20520123839378357, 0.027697738260030746, 0.18133431673049927, -0.4657280743122101, 0.6460101008415222, 0.07768115401268005, -0.06666643917560577, -0.618510901927948, 0.42446470260620117, 0.2226395457983017, 0.22309835255146027, 0.19577090442180634, 0.03502549231052399, -0.06990866363048553, -0.2954382598400116, 0.29517030715942383, 0.1513371616601944, 0.5562098026275635, -0.012651250697672367, -0.1178879514336586, -0.07768424600362778, -0.10585685819387436, -0.2926132082939148, 0.0025607238058000803, 0.45540758967399597, 0.1430557668209076, 0.36238160729408264, 0.1512918770313263, -0.14484669268131256, -0.07911646366119385, -0.08152655512094498, 0.15259063243865967, -0.07403800636529922, 0.008886956609785557, -0.030813248828053474, 0.23465213179588318, 0.002041741507127881, 0.06405448913574219, -0.16308103501796722, 0.16117781400680542, 0.05424284189939499, -0.19022005796432495, 0.3149530589580536, -0.12141380459070206, 0.11235813796520233, -0.10174383968114853, -0.6197031140327454, 0.19639994204044342, -0.21972523629665375, -0.20156770944595337, 0.2108994722366333, 0.3649812936782837, -0.2040480375289917], [0.05195333808660507, 0.3301578462123871, 0.10171876847743988, -0.1186898872256279, -0.16726157069206238, -0.37385666370391846, 0.07319051772356033, 0.09197266399860382, 0.01938362792134285, 0.04290188103914261, 0.08528570830821991, -0.009899990633130074, -0.0984865352511406, -0.10835955291986465, -0.0910131111741066, 0.33764883875846863, -0.1609431654214859, 0.09668444097042084, -0.08056475222110748, 0.326315701007843, -0.1144474446773529, 0.16926471889019012, -0.053363025188446045, -0.0006393640069290996, -0.05128255859017372, -0.14396488666534424, 0.2702506482601166, -0.08557794243097305, 0.36578571796417236, 0.15348978340625763, -0.023352334275841713, -0.05731223523616791, 0.09677991271018982, -0.41005030274391174, 0.09983870387077332, 0.501969039440155, 0.047088876366615295, 0.3257633447647095, -0.031221499666571617, -0.05467928573489189, 0.08402841538190842, -0.01842935010790825, 0.17741025984287262, 0.10489950329065323, -0.2029774785041809, 0.05379215627908707, 0.2647046446800232, -0.06545183807611465, -0.09644528478384018, 0.137208491563797, -0.10516747087240219, 0.07303991913795471, 0.3234092593193054, 0.3970896899700165, 0.07141590863466263, -0.16144774854183197, 0.18838728964328766, -0.18546004593372345, 0.35481253266334534, -0.18157868087291718, 0.09920494258403778, 0.12943536043167114, 0.33918675780296326, 0.1482669562101364], [-0.13420671224594116, 0.24917982518672943, 0.011083411052823067, -0.08055766671895981, -0.06487403064966202, -0.3746154010295868, 0.05524641275405884, 0.03629423677921295, 0.051198288798332214, 0.07718363404273987, 0.21205392479896545, -0.12162350863218307, 0.09200030565261841, 0.07162395864725113, -0.05259071663022041, 0.5283949971199036, -0.22841046750545502, 0.23203344643115997, -0.07475268840789795, 0.39642590284347534, -0.03054879419505596, 0.11468815058469772, 0.0003032322274520993, -0.00468660332262516, -0.0737963393330574, -0.12872299551963806, 0.4358104169368744, 0.015944629907608032, 0.3091993033885956, 0.167656809091568, 0.017383165657520294, -0.1430814266204834, -0.061744049191474915, -0.3913719952106476, 0.04991861432790756, 0.347663551568985, 0.13519315421581268, 0.3312682807445526, 0.05602499097585678, 0.04377877712249756, 0.15154920518398285, 0.10762876272201538, 0.25755593180656433, -0.1156117394566536, -0.2578001320362091, 0.13553285598754883, 0.12262067943811417, 0.0657239481806755, -0.2841172218322754, 0.16415521502494812, -0.08895394206047058, 0.006784098222851753, 0.19139434397220612, 0.32110753655433655, 0.07256075739860535, 0.0656576082110405, 0.06620388478040695, -0.1626390814781189, 0.09660568833351135, -0.18295444548130035, -0.06803233921527863, -0.043753188103437424, 0.15381672978401184, 0.034044597297906876], [-0.05404528230428696, -0.23837728798389435, -0.2528853118419647, 0.41510525345802307, 0.3918122351169586, 0.3889351189136505, -0.2054436206817627, -0.40356260538101196, 0.2610156834125519, -0.24338024854660034, -0.2679758667945862, -0.020068364217877388, -0.20596514642238617, 0.08152731508016586, 0.5342698097229004, -0.2247319370508194, 0.19912898540496826, 0.29729118943214417, 0.5406287908554077, -0.24751611053943634, 0.08419867604970932, -0.3421632647514343, 0.13742952048778534, -0.08229284733533859, 0.020368440076708794, 0.2436446249485016, -0.31204450130462646, 0.0016323833260685205, -0.06409250944852829, 0.02954702638089657, 0.3351724147796631, 0.3172334134578705, 0.0389508381485939, 0.4292735755443573, 0.09121962636709213, 0.15588738024234772, -0.3004668056964874, -0.11383995413780212, -0.044719599187374115, -0.07485641539096832, 0.4204036295413971, 0.25936952233314514, -0.4290800094604492, -0.1008749008178711, 0.1694912314414978, 0.05654071643948555, 0.1066092774271965, 0.02751488983631134, 0.046744298189878464, -0.14325004816055298, -0.27517086267471313, 0.3113856613636017, 0.48168066143989563, 0.1963319182395935, 0.038971930742263794, -0.10756079852581024, 0.10642600059509277, 0.5482985973358154, -0.4873180687427521, 0.28597956895828247, -0.001368766650557518, 0.14931312203407288, -0.29308924078941345, 0.07441647350788116], [0.05149785056710243, 0.07908923178911209, 0.0648748055100441, -0.17702223360538483, 0.05181335285305977, -0.38955461978912354, 0.1456628441810608, 0.19193334877490997, 0.0977453738451004, 0.12767888605594635, 0.21224935352802277, -0.08640746772289276, -0.04891687259078026, -0.02114994078874588, -0.14065021276474, 0.36889028549194336, -0.12557673454284668, 0.18111516535282135, -0.14282138645648956, 0.30935943126678467, -0.07078541815280914, 0.05073001980781555, -0.15766467154026031, -0.1405523121356964, 0.11196096986532211, -0.14114609360694885, 0.36819756031036377, -0.09733506292104721, 0.2798578143119812, 0.17739544808864594, -0.12111958861351013, 0.005593411158770323, 0.1563473492860794, -0.34369632601737976, 0.3647468090057373, 0.41578468680381775, -0.015027940273284912, 0.3738257586956024, 0.04692874476313591, 0.04268409684300423, 0.0821864977478981, -0.05867409706115723, 0.1488802433013916, 0.08178369700908661, -0.027012139558792114, 0.08858761936426163, 0.1538461148738861, -0.07266264408826828, -0.3093392848968506, 0.0939197987318039, -0.19256265461444855, 0.16810472309589386, 0.11344785243272781, 0.48702579736709595, 0.11928244680166245, -0.022981049492955208, 0.186585932970047, 0.04922884330153465, 0.3165941834449768, 0.0014060643734410405, -0.011817282997071743, 0.10358482599258423, 0.28004175424575806, 0.01814965531229973], [0.023424530401825905, -0.2383953332901001, -0.3402959108352661, 0.4807281494140625, 0.523284912109375, 0.46287330985069275, -0.2368241846561432, -0.30031633377075195, 0.11450666189193726, -0.228083536028862, -0.32087820768356323, -0.11275120824575424, -0.10202008485794067, 0.13653841614723206, 0.5204318761825562, -0.16727043688297272, 0.09323050826787949, 0.5730602145195007, 0.697144627571106, -0.31449830532073975, 0.16263701021671295, -0.22579693794250488, 0.019083211198449135, -0.11765818297863007, 0.19918358325958252, 0.4004753828048706, -0.5319624543190002, -0.11546649783849716, -0.08369878679513931, 0.017043469473719597, 0.1834048628807068, 0.23607385158538818, -0.04499193653464317, 0.5721683502197266, 0.2754720449447632, 0.026454010978341103, -0.3911523222923279, -0.3145601153373718, 0.07825271040201187, -0.06308797001838684, 0.2895987033843994, 0.37067538499832153, -0.5015038847923279, -0.08769582211971283, 0.091468445956707, -0.010995488613843918, 0.08467339724302292, -0.051740288734436035, 0.19189082086086273, -0.04931163787841797, -0.11037067323923111, 0.1472535878419876, 0.4774208664894104, 0.3767780363559723, 0.032071880996227264, -0.08899128437042236, 0.1708402782678604, 0.6561560034751892, -0.3855561912059784, 0.24959531426429749, 0.07436364144086838, 0.04359155520796776, -0.40925267338752747, 0.11489925533533096], [-0.0862351655960083, 0.1250198781490326, 0.0702555850148201, -0.2100875973701477, -0.1413177251815796, -0.20690931379795074, 0.1283184289932251, 0.14326971769332886, 0.13486099243164062, 0.11365899443626404, 0.189049631357193, 0.04810443893074989, -0.04761018976569176, -0.14452168345451355, 0.055574290454387665, 0.31689873337745667, -0.14287805557250977, 0.13908499479293823, 0.06048963591456413, 0.3832078278064728, 0.05884115397930145, 0.29335734248161316, -0.20191003382205963, -0.018465694040060043, -0.07035704702138901, -0.20956580340862274, 0.328197717666626, 0.02511092834174633, 0.42433077096939087, 0.16940748691558838, -0.13665245473384857, 0.00859084539115429, 0.1407627910375595, -0.19387395679950714, 0.2522837221622467, 0.3756372928619385, 0.061383042484521866, 0.2546227276325226, -0.1585691124200821, 0.04729665070772171, 0.04202274605631828, -0.06244900822639465, 0.21784771978855133, -0.004223957192152739, -0.2404802292585373, 0.05720449984073639, 0.07200252264738083, 0.027467070147395134, -0.04991599917411804, -0.03954318165779114, -0.047842685133218765, -0.033018920570611954, 0.25725555419921875, 0.24475914239883423, 0.06628065556287766, -0.21063829958438873, 0.19650307297706604, -0.059318020939826965, 0.16978240013122559, -0.059499118477106094, 0.08113289624452591, 0.08147044479846954, 0.24971193075180054, 0.18329855799674988], [0.3890847861766815, -0.3131912648677826, 0.2029956728219986, 0.3982793986797333, 0.33655866980552673, 0.4679039418697357, 0.3184034526348114, 0.014209489338099957, -0.11838547140359879, 0.016836365684866905, -0.31713569164276123, -0.08190242201089859, 0.056113503873348236, -0.06017677113413811, 0.2855756878852844, -0.5120255351066589, 0.06330504268407822, 0.13411174714565277, 0.4121520221233368, -0.3925580084323883, -0.25684213638305664, -0.25994908809661865, 0.020106090232729912, 0.03639489784836769, -0.11286237835884094, 0.2432125061750412, -0.3414146304130554, 0.005718030966818333, -0.5143210887908936, 0.09676051884889603, 0.1749601513147354, 0.09914660453796387, 0.07018368691205978, 0.2743458151817322, -0.12598657608032227, -0.4799303412437439, -0.02891458384692669, -0.217992901802063, -0.16920775175094604, 0.3771674931049347, 0.08648322522640228, 0.18954476714134216, -0.2803596556186676, -0.039847925305366516, 0.22814670205116272, 0.020488107576966286, -0.16920730471611023, -0.08183178305625916, 0.06947677582502365, 0.3831614851951599, 0.06747996062040329, -0.055296190083026886, 0.29014164209365845, -0.2269325852394104, 0.05354057252407074, -0.07948320358991623, 0.09038688242435455, 0.5132531523704529, -0.22181572020053864, 0.13245879113674164, 0.23068781197071075, -0.014871813356876373, -0.3003524839878082, -0.00826223660260439], [-0.0494757778942585, 0.08808296918869019, 0.11520667374134064, -0.20597408711910248, -0.21001923084259033, -0.28882071375846863, -0.02137262374162674, 0.11708948016166687, 0.06769183278083801, 0.05245422199368477, 0.22720375657081604, -0.14917989075183868, -0.01980450749397278, 0.006254545412957668, -0.0953579768538475, 0.5200950503349304, -0.20930303633213043, 0.21138906478881836, 0.03858327493071556, 0.2976851761341095, 0.05329393222928047, 0.26522746682167053, -0.1763714998960495, -0.025387093424797058, -0.061688393354415894, -0.2603990435600281, 0.2607766091823578, -0.11479457467794418, 0.3371447026729584, 0.04420096054673195, -0.028356872498989105, 0.028729651123285294, 0.02097945846617222, -0.38800594210624695, 0.2794102728366852, 0.505067765712738, -0.0639641210436821, 0.25265631079673767, -0.15485332906246185, 0.014038060791790485, 0.14381791651248932, -0.11025331914424896, 0.3278087377548218, -0.006463624071329832, -0.09639263898134232, 0.042969126254320145, 0.24967679381370544, -0.08281164616346359, -0.13682152330875397, 0.177960604429245, 0.01566579006612301, 0.1379644125699997, 0.09712602198123932, 0.24332357943058014, 0.25355204939842224, 0.020793186500668526, 0.27367842197418213, 0.03107045404613018, 0.13364335894584656, 0.0014301635092124343, 0.1560485064983368, 0.1210300549864769, 0.12385109812021255, 0.14904898405075073], [-0.2967332601547241, 0.21097587049007416, -0.2661738097667694, -0.19485421478748322, -0.2738431990146637, -0.42656996846199036, -0.15466295182704926, 0.1632409244775772, -0.1389554738998413, 0.04855659231543541, 0.21757815778255463, 0.08881275355815887, 0.08170054852962494, 0.3205668330192566, -0.407634973526001, 0.6662116050720215, 0.05447019264101982, -0.044711798429489136, -0.5360853672027588, 0.39502501487731934, 0.2592441439628601, 0.2680889070034027, 0.146637961268425, 0.21061120927333832, -0.12575173377990723, -0.29246020317077637, 0.4829067289829254, 0.027206238359212875, 0.5619523525238037, -0.08776285499334335, -0.16382625699043274, 0.07988321036100388, -0.04145049676299095, -0.5432074069976807, 0.062062736600637436, 0.5462976694107056, 0.15687236189842224, 0.4137309193611145, 0.20137783885002136, -0.1309933364391327, -0.13967415690422058, 0.0728105753660202, 0.36267295479774475, 0.05279189348220825, -0.22926710546016693, 0.11807664483785629, 0.24941247701644897, 0.20061929523944855, 0.0641254261136055, -0.18658842146396637, 0.180042564868927, -0.07270487397909164, -0.09024686366319656, 0.2403205782175064, -0.13059879839420319, 0.0578993558883667, -0.043733444064855576, -0.7238656282424927, 0.41691431403160095, -0.13806957006454468, -0.2486889362335205, 0.06453146040439606, 0.3851575553417206, -0.015916408970952034], [0.392638623714447, -0.21481789648532867, 0.220046728849411, 0.34972473978996277, 0.28133493661880493, 0.4232795834541321, 0.2959097623825073, -0.08515706658363342, 0.04061833769083023, 0.017645228654146194, -0.23583732545375824, -0.11399833112955093, 0.17763225734233856, -0.05037286505103111, 0.42543715238571167, -0.5669976472854614, 0.09735658764839172, 0.2130826711654663, 0.5326452255249023, -0.3720964789390564, -0.06551279872655869, -0.25319749116897583, -0.03926033899188042, -0.06774268299341202, 0.06434700638055801, 0.3887535035610199, -0.42320123314857483, -0.08730684220790863, -0.5020927786827087, 0.08388543128967285, 0.05521140992641449, 0.12190894037485123, -0.011492186225950718, 0.364713191986084, 0.09815685451030731, -0.5834774971008301, -0.0570480115711689, -0.12378761172294617, -0.19650420546531677, 0.370426207780838, 0.12523624300956726, 0.2146996557712555, -0.41024497151374817, 0.10509977489709854, 0.24276915192604065, 0.008024809882044792, -0.05668827146291733, -0.01187671348452568, 0.020365292206406593, 0.23832544684410095, 0.1809307038784027, -0.07383078336715698, 0.16751743853092194, -0.07904472202062607, 0.16679370403289795, 0.013169015757739544, -0.0693064033985138, 0.6063786149024963, -0.37546131014823914, 0.0935167744755745, 0.22231896221637726, -0.006791757885366678, -0.43174245953559875, -0.000338427082169801], [-0.11356744915246964, 0.14923140406608582, -0.16389557719230652, -0.0051546827889978886, -0.04235620051622391, -0.19407109916210175, -0.028064820915460587, 0.0942419171333313, 0.05050952360033989, -0.10380775481462479, 0.034994617104530334, -0.04922809451818466, 0.016149885952472687, -0.1361990123987198, -0.01090385764837265, 0.14119552075862885, 0.06151480972766876, -0.014386926777660847, 0.06198417395353317, -0.11745985597372055, 0.08967781811952591, 0.049716852605342865, 0.04628360643982887, 0.0640498623251915, 0.07601527869701385, -0.14467588067054749, 0.18271547555923462, -0.09929843246936798, 0.14576534926891327, -0.0987744852900505, -0.08152031898498535, -0.12063407152891159, -0.06377443671226501, -0.08385176956653595, -0.005257453769445419, 0.04372930899262428, -0.004396901931613684, -0.016939908266067505, -0.0538007952272892, -0.016231998801231384, 0.09219040721654892, -0.08710553497076035, 0.12964601814746857, -0.14990995824337006, 0.06653241068124771, 0.019474567845463753, 0.1828257441520691, -0.09987618774175644, 0.06661631911993027, -0.2106834501028061, -0.08746305108070374, -0.06473055481910706, 0.08438999950885773, 0.1509009450674057, 0.05499255657196045, -0.0739867091178894, 0.04630930721759796, 0.0758093073964119, -0.012318811379373074, -0.05299344286322594, -0.18399186432361603, -0.017105096951127052, 0.08249860256910324, -0.08818598836660385], [0.018974583595991135, 0.24027471244335175, 0.029855629429221153, -0.2424793392419815, -0.1665991246700287, -0.07664027065038681, -0.04696796461939812, 0.17975151538848877, 0.10016533732414246, 0.08052942901849747, 0.232097789645195, -0.14227265119552612, -0.1497006118297577, 0.007455339655280113, 0.05638279393315315, 0.5851039290428162, -0.0486329048871994, 0.19681476056575775, 0.01654180884361267, 0.47707223892211914, -0.07035110145807266, 0.20411157608032227, 0.03070130944252014, -0.15600614249706268, 0.2355722337961197, -0.018637727946043015, 0.33451688289642334, -0.21791575849056244, 0.5464404821395874, 0.15451094508171082, 0.025039998814463615, -0.11201556771993637, 0.19409672915935516, -0.008481656201183796, 0.17813022434711456, 0.6261688470840454, 0.24328581988811493, 0.34766313433647156, -0.11356546729803085, -0.013496149331331253, -0.014518066309392452, 0.06595791131258011, 0.14154501259326935, -0.1291533261537552, -0.026057535782456398, -0.009587623178958893, 0.3162984549999237, 0.011303739622235298, -0.12599331140518188, 0.08332379162311554, -0.011511355638504028, -0.02512497268617153, 0.11990197002887726, 0.41648077964782715, 0.16349297761917114, -0.04612932726740837, 0.2520580291748047, -0.07275982946157455, 0.1865653544664383, -0.11426787078380585, 0.1736428290605545, 0.10151311010122299, 0.33063897490501404, 0.18044142425060272], [0.04544885829091072, 0.3094954788684845, 0.03290712088346481, -0.3014023005962372, -0.06829545646905899, -0.40429583191871643, 0.02500622719526291, 0.1803392767906189, 0.10927499085664749, -0.03917268291115761, 0.25545355677604675, 0.01513362955302, 0.014522618614137173, 0.006619768682867289, -0.0018753958866000175, 0.7062113881111145, -0.005631872918456793, 0.26470455527305603, -0.1982080191373825, 0.4308546781539917, 0.04562097042798996, 0.3173443675041199, -0.0818512812256813, -0.16749735176563263, 0.051735974848270416, -0.2616365849971771, 0.36698558926582336, -0.17826607823371887, 0.47062137722969055, 0.18943342566490173, -0.21836785972118378, -0.04359230399131775, 0.20333293080329895, -0.308383584022522, 0.3451196253299713, 0.5311700105667114, 0.09856518357992172, 0.37330707907676697, 0.0059069497510790825, -0.1361662596464157, 0.1699294149875641, -0.07989862561225891, 0.39056065678596497, 0.06660807132720947, -0.26571571826934814, 0.24999481439590454, 0.18941783905029297, -0.11628751456737518, -0.33673182129859924, 0.16671210527420044, -0.1696254312992096, 0.17701977491378784, 0.11283677071332932, 0.44010359048843384, 0.20723706483840942, -0.15748411417007446, 0.2132088541984558, -0.14973707497119904, 0.24106329679489136, -0.15612633526325226, 0.21564307808876038, -0.018992718309164047, 0.32638776302337646, 0.046842433512210846], [-0.2447902113199234, 0.18898999691009521, -0.20057840645313263, -0.19012118875980377, -0.26383283734321594, -0.47614586353302, -0.15611018240451813, 0.17805273830890656, -0.13210885226726532, 0.10059171915054321, 0.19041453301906586, 0.1862396001815796, 0.13211072981357574, 0.13893549144268036, -0.3104519844055176, 0.48706966638565063, 0.1575092226266861, -0.2266700714826584, -0.5608624219894409, 0.49318021535873413, 0.3616202771663666, 0.11498914659023285, -0.04718413203954697, 0.15249741077423096, -0.1703629493713379, -0.3635838031768799, 0.3958348333835602, 0.07088188827037811, 0.5589430332183838, -0.18667277693748474, -0.10156629979610443, -0.08274582773447037, -0.07061588019132614, -0.3043978214263916, 0.1060442179441452, 0.37257325649261475, 0.0906449407339096, 0.2803041338920593, 0.14827771484851837, -0.12050475180149078, -0.11950510740280151, 0.03178815916180611, 0.12474203109741211, 0.054888077080249786, -0.14302611351013184, 0.13051852583885193, 0.11791098117828369, 0.05445954576134682, -0.03137653321027756, -0.11864994466304779, 0.07509125024080276, -0.08717352151870728, -0.18157127499580383, 0.18483705818653107, -0.16308115422725677, 0.173521026968956, -0.052921198308467865, -0.6311261653900146, 0.3438306152820587, -0.025715311989188194, -0.21731942892074585, 0.16051436960697174, 0.14388379454612732, -0.07205130904912949], [-0.27844569087028503, 0.27632781863212585, -0.11238954216241837, -0.16916723549365997, -0.3720678687095642, -0.5110390186309814, -0.19977277517318726, 0.05596575513482094, -0.09646346420049667, -0.06038229539990425, 0.29882389307022095, 0.1494542509317398, 0.1007583811879158, 0.271959125995636, -0.4017558991909027, 0.4965112507343292, 0.06762208044528961, -0.16365423798561096, -0.564444899559021, 0.4907219409942627, 0.3252688944339752, 0.29701241850852966, 0.11131918430328369, 0.05330536514520645, -0.12377946823835373, -0.2352892905473709, 0.3934321403503418, 0.06293287873268127, 0.5304920673370361, -0.13782770931720734, 0.011629694141447544, -0.08246023952960968, -0.06330475956201553, -0.4936845898628235, -0.03494230657815933, 0.4622860848903656, 0.040695250034332275, 0.22906386852264404, 0.06415621936321259, -0.10463112592697144, -0.10790513455867767, -0.00454358384013176, 0.31433993577957153, 0.09752742946147919, -0.1020621806383133, 0.06767819076776505, 0.17372840642929077, 0.08512959629297256, 0.03271652013063431, -0.18434374034404755, -0.03198845311999321, -0.0561457984149456, -0.01392096746712923, 0.1603100746870041, -0.06258094310760498, 0.06501463800668716, -0.07074582576751709, -0.6767546534538269, 0.29842785000801086, -0.17969243228435516, -0.12492585182189941, 0.17565502226352692, 0.35507962107658386, -0.030083753168582916], [0.12813374400138855, 0.09586714953184128, 0.04946344718337059, 0.0721140131354332, 0.0740656703710556, 0.1745307296514511, 0.08866928517818451, 0.051401469856500626, 0.07727856189012527, -0.07825734466314316, 0.029923321679234505, -0.06623195111751556, -0.08220978081226349, -0.07231517881155014, -0.03584185615181923, -0.04547606408596039, -0.08509940654039383, 0.12385158985853195, 0.23662254214286804, -0.07662701606750488, -0.07606673240661621, -0.046922408044338226, -0.1024995893239975, -0.0894375741481781, -0.02934524044394493, 0.1428392380475998, -0.16701550781726837, -0.016274215653538704, -0.09462901204824448, -0.1074472963809967, 0.12805557250976562, -0.12807242572307587, -0.023294147104024887, 0.1279996633529663, -0.0395391471683979, -0.06855297088623047, 0.07144767045974731, 0.039085425436496735, 0.05147220939397812, 0.07543376833200455, 0.019199397414922714, 0.09120915085077286, -0.13646933436393738, -0.05447191372513771, -0.04777929186820984, -0.007676525041460991, 0.026059303432703018, -0.006114954594522715, -0.01567746140062809, 0.06654269248247147, 0.07887361198663712, 0.13433195650577545, -0.017233921214938164, -0.14259620010852814, -0.06525899469852448, -0.0909704715013504, 0.0723380520939827, 0.24660778045654297, -0.09474336355924606, 0.05962361767888069, -0.08264032751321793, -0.10522350668907166, -0.04518583044409752, 0.009567219763994217], [0.22632142901420593, -0.37448781728744507, 0.29583364725112915, 0.17881178855895996, 0.37814947962760925, 0.4077286124229431, 0.24035239219665527, -0.11969595402479172, -0.07196322828531265, 0.028546210378408432, -0.26424089074134827, -0.08517751842737198, 0.12119617313146591, -0.03050440363585949, 0.2076658010482788, -0.6327303051948547, 0.0884428545832634, 0.10020430386066437, 0.576648473739624, -0.3680364489555359, -0.2571198344230652, -0.26170188188552856, 0.1258561760187149, -0.09231190383434296, -0.0035774020943790674, 0.25493720173835754, -0.3501608967781067, -0.004247261676937342, -0.4401111900806427, 0.23435217142105103, 0.21029987931251526, -0.023633049800992012, 0.08103474229574203, 0.2988516092300415, -0.08915852755308151, -0.4731791019439697, -0.0955650806427002, -0.25194016098976135, 0.013976994901895523, 0.22812218964099884, 0.21574927866458893, 0.19751563668251038, -0.34259626269340515, 0.19849707186222076, 0.32060763239860535, -0.056828320026397705, -0.1657228171825409, -0.13315123319625854, -0.08918046951293945, 0.39729729294776917, -0.050424009561538696, -0.09171298146247864, 0.2839449644088745, -0.09453826397657394, -0.029646826907992363, 0.054937511682510376, -0.03854121267795563, 0.6848223209381104, -0.2784576117992401, 0.10945514589548111, 0.290193647146225, -0.03039783611893654, -0.26296985149383545, -0.13283343613147736], [-0.2573954164981842, 0.13947011530399323, -0.1762976050376892, -0.3549466133117676, -0.15396875143051147, -0.4524269104003906, -0.1523045301437378, 0.09580635279417038, -0.1200026422739029, -0.04323427751660347, 0.08558949083089828, 0.14486578106880188, -0.03759230673313141, 0.22513584792613983, -0.3553154468536377, 0.34015554189682007, -0.009688145481050014, -0.17514902353286743, -0.5926637649536133, 0.24182377755641937, 0.14549285173416138, 0.24979715049266815, 0.11980322003364563, -0.009278523735702038, -0.022203145548701286, -0.11571507155895233, 0.3821984529495239, 0.15521520376205444, 0.44774702191352844, -0.15370690822601318, -0.1462981402873993, 0.07186977565288544, 0.03128930553793907, -0.26147571206092834, 0.09793458133935928, 0.49142441153526306, -0.02802455797791481, 0.24877987802028656, 0.1684776246547699, -0.02687659114599228, -0.10274959355592728, -0.04604094848036766, 0.2429104447364807, 0.09318184107542038, -0.07790125161409378, -0.013090893626213074, 0.049911852926015854, 0.1807207465171814, 0.07113467156887054, -0.13485638797283173, 0.13799266517162323, -0.17049939930438995, -0.016153760254383087, 0.19305317103862762, 0.07217249274253845, 0.07585000991821289, 0.026987506076693535, -0.5168878436088562, 0.3174912631511688, -0.22652693092823029, -0.12532296776771545, 0.11454759538173676, 0.3240952491760254, -0.07899514585733414], [-0.2146787941455841, 0.18230292201042175, -0.20013606548309326, -0.1422801911830902, -0.23532366752624512, -0.308041512966156, -0.1196262389421463, 0.1126735508441925, -0.10630770772695541, 0.17159830033779144, 0.2621767520904541, 0.11130361258983612, 0.018490204587578773, 0.0715966448187828, -0.3097827732563019, 0.46103593707084656, 0.12140664458274841, -0.1906503140926361, -0.5533086657524109, 0.40043190121650696, 0.2113499939441681, 0.30211141705513, 0.09072647243738174, 0.13491803407669067, -0.20160715281963348, -0.36235925555229187, 0.4574976861476898, 0.18115080893039703, 0.4679547846317291, -0.11508020758628845, -0.0952494665980339, 0.07352875918149948, -0.03256385773420334, -0.41644805669784546, 0.15988041460514069, 0.5864773392677307, -0.018817031756043434, 0.34343478083610535, 0.1270541548728943, -0.16511018574237823, -0.10342777520418167, 0.13584260642528534, 0.1734144687652588, -0.0031136167235672474, -0.19026513397693634, 0.07589657604694366, 0.07678568363189697, 0.19427591562271118, 0.010219646617770195, -0.24751250445842743, 0.10076957941055298, -0.12874631583690643, -0.04398084059357643, 0.1216360330581665, 0.0890667513012886, 0.08766750991344452, 0.049532778561115265, -0.5993756651878357, 0.3158624768257141, -0.021211542189121246, -0.09112901985645294, 0.033085454255342484, 0.366798460483551, -0.1567893624305725], [0.44543710350990295, -0.3948829472064972, 0.2582729160785675, 0.41725653409957886, 0.29758986830711365, 0.5511239767074585, 0.2650236487388611, -0.019057877361774445, -0.0701855793595314, -0.030203890055418015, -0.1723942905664444, 0.07101480662822723, 0.11530300229787827, -0.14363746345043182, 0.28435537219047546, -0.646618664264679, 0.04434102773666382, 0.20971062779426575, 0.5218917727470398, -0.39732593297958374, -0.1247611865401268, -0.2581999897956848, -0.06409835070371628, 0.036490652710199356, -0.07616639882326126, 0.38459792733192444, -0.38486248254776, -0.09091978520154953, -0.5601880550384521, 0.2431526482105255, 0.08479826152324677, 0.1471404880285263, 0.08731576800346375, 0.40571311116218567, 0.02164529077708721, -0.5653653144836426, -0.04660670831799507, -0.33684831857681274, -0.08608932048082352, 0.19096359610557556, 0.2757810950279236, 0.06315769255161285, -0.42507827281951904, 0.07571421563625336, 0.2668069303035736, -0.1187446191906929, -0.19969290494918823, -0.14233022928237915, -0.07046792656183243, 0.4061848223209381, 0.09977980703115463, -0.18082621693611145, 0.2355107218027115, -0.12904497981071472, 0.19818824529647827, 0.004745404701679945, -0.08631885051727295, 0.6192476749420166, -0.39601802825927734, 0.1187557503581047, 0.4157004654407501, -0.159000426530838, -0.4130823612213135, -0.12184811383485794], [0.28271496295928955, -0.28656327724456787, 0.3470265567302704, -0.13236667215824127, 0.4323801100254059, 0.012141857296228409, 0.24950681626796722, -0.17212526500225067, -0.1778230220079422, 0.0022880404721945524, -0.22979983687400818, 0.0409621000289917, 0.26489749550819397, -0.2778621315956116, 0.41883528232574463, -0.5597594380378723, 0.07295528799295425, 0.3130697011947632, 0.6865572929382324, -0.3030749559402466, -0.3185383677482605, -0.328778475522995, -0.4245820641517639, 0.021434081718325615, -0.2041461169719696, -0.20877422392368317, -0.492543488740921, 0.12856131792068481, -0.5479081869125366, 0.30720436573028564, -0.5540030598640442, 0.0017879244405776262, -0.02768658474087715, 0.5354023575782776, -0.10239758342504501, -0.5021520853042603, -0.011471505276858807, -0.19921165704727173, 0.020759250968694687, 0.1719236671924591, 0.1730789989233017, 0.046901803463697433, -0.2651923596858978, 0.2961278557777405, 0.2990988790988922, -0.06402433663606644, -0.08871155977249146, -0.02457066811621189, -0.22271205484867096, 0.37839075922966003, 0.1683054119348526, -0.265617311000824, 0.1818864643573761, -0.47087758779525757, 0.11126705259084702, 0.15341269969940186, -0.018575921654701233, 0.4086218774318695, -0.2191176861524582, -0.31802454590797424, 0.1909734010696411, -0.2969837784767151, -0.21144895255565643, -0.3034941554069519], [-0.22832104563713074, 0.40270522236824036, -0.24456578493118286, -0.19413450360298157, -0.28763946890830994, -0.5241064429283142, -0.2138236165046692, 0.20006993412971497, -0.19630463421344757, 0.12921440601348877, 0.30332475900650024, 0.15852485597133636, 0.021965747699141502, 0.26345154643058777, -0.3619605004787445, 0.556800127029419, 0.12962977588176727, -0.18107125163078308, -0.5870999693870544, 0.33770841360092163, 0.34622693061828613, 0.36030668020248413, 0.07313022017478943, 0.18525266647338867, -0.14326685667037964, -0.3983246088027954, 0.326188862323761, 0.18547260761260986, 0.5800210237503052, -0.010347920469939709, -0.15851563215255737, -0.05573452636599541, 0.023610377684235573, -0.4702047109603882, 0.1348249465227127, 0.5655785202980042, 0.035866525024175644, 0.3227491080760956, 0.23001599311828613, -0.16112323105335236, -0.0269759688526392, 0.026952946558594704, 0.2606271803379059, -0.017334317788481712, -0.18346276879310608, 0.07171222567558289, 0.14890466630458832, 0.06975924223661423, 0.01080039981752634, -0.260479211807251, 0.13904482126235962, -0.124592624604702, -0.21639084815979004, 0.2344365268945694, -0.0393332839012146, 0.1003737673163414, 0.07731404900550842, -0.5297278165817261, 0.3674739897251129, -0.21642403304576874, -0.19860173761844635, 0.1585150808095932, 0.19734522700309753, -0.21794120967388153], [0.2632133364677429, -0.1111508309841156, 0.20733974874019623, 0.25425228476524353, 0.3097160756587982, 0.3585728406906128, 0.09131941199302673, -0.15502271056175232, -0.012305828742682934, -0.053715694695711136, -0.0908820703625679, 0.0873212069272995, 0.11087287962436676, -0.07179722934961319, 0.1821577548980713, -0.41060900688171387, 0.06579208374023438, 0.19353558123111725, 0.41692501306533813, -0.36548811197280884, -0.06400926411151886, -0.07249139249324799, 0.11137359589338303, 0.09599033743143082, 0.038648877292871475, 0.2620476484298706, -0.4043605327606201, 0.02413468435406685, -0.381095826625824, 0.20924893021583557, 0.130945086479187, 0.007886538282036781, -0.0008230159291997552, 0.17071035504341125, -0.10286208987236023, -0.5150869488716125, 0.07263901084661484, -0.3295861482620239, -0.0684172511100769, 0.26140353083610535, 0.24609503149986267, 0.08979129791259766, -0.26182401180267334, 0.054242461919784546, 0.17495322227478027, -0.07366536557674408, -0.06623528897762299, 0.010674464516341686, 0.10241910070180893, 0.18720100820064545, -0.029263079166412354, 0.012813109904527664, 0.26298990845680237, -0.24140675365924835, 0.14852489531040192, 0.06203979253768921, -0.050449270755052567, 0.4597816467285156, -0.1467781811952591, 0.24102701246738434, 0.12549988925457, -0.013853726908564568, -0.18196602165699005, 0.001694855629466474], [-0.030494725331664085, 0.29707762598991394, 0.0015433488879352808, -0.09926339238882065, -0.11205737292766571, -0.23527969419956207, -0.06868960708379745, 0.14227233827114105, 0.006407306529581547, 0.1411859542131424, 0.19960245490074158, -0.027461428195238113, 0.14166860282421112, -0.05635889619588852, -0.010760725475847721, 0.4093039929866791, -0.21231471002101898, 0.23318596184253693, -0.1846514791250229, 0.29532817006111145, 0.02788914181292057, 0.27080047130584717, -0.047576382756233215, 0.04917784407734871, 0.10336390137672424, -0.17482617497444153, 0.4063076078891754, -0.07560258358716965, 0.551979124546051, 0.01361601147800684, -0.19679395854473114, 0.026227395981550217, 0.06847498565912247, -0.41209012269973755, 0.23995158076286316, 0.4599589407444, 0.007991140708327293, 0.3411397337913513, -0.04622967541217804, -0.12499663233757019, 0.14251451194286346, -0.07669204473495483, 0.21681126952171326, 0.05327766016125679, -0.2667568325996399, -0.0013763750903308392, 0.2793302834033966, 0.14375127851963043, -0.2803928256034851, 0.0826651006937027, -0.0642043948173523, 0.15109719336032867, 0.3211909830570221, 0.3170895576477051, 0.03209865838289261, -0.15553227066993713, 0.20564578473567963, -0.04732183367013931, 0.34756743907928467, -0.15811890363693237, 0.048235367983579636, -0.024803373962640762, 0.4561649262905121, -0.02231574058532715], [0.08077942579984665, 0.346369206905365, 0.14513806998729706, -0.32728710770606995, -0.22182880342006683, -0.3600131869316101, 0.09709186106920242, 0.01212822925299406, -0.014422240667045116, 0.0218310859054327, 0.1064266636967659, -0.15711627900600433, -0.0689050480723381, -0.06381411850452423, -0.12072041630744934, 0.5115207433700562, -0.24000009894371033, 0.09433558583259583, -0.12510284781455994, 0.2931649386882782, 0.020498301833868027, 0.1202976256608963, -0.20215252041816711, -0.09937702864408493, -0.05780792981386185, -0.192407488822937, 0.31224408745765686, -0.04715941101312637, 0.3294146656990051, 0.047821275889873505, -0.13041643798351288, 0.10877703130245209, 0.04228294640779495, -0.49045616388320923, 0.35879117250442505, 0.5598192811012268, 0.10495360195636749, 0.33935123682022095, -0.08902861177921295, -0.038532353937625885, 0.1685420125722885, -0.06744039803743362, 0.2289726883172989, 0.09919486194849014, -0.0980922281742096, 0.18452247977256775, 0.2800352871417999, 0.058128662407398224, -0.4326123297214508, 0.1478727161884308, -0.14221824705600739, -0.013225125148892403, 0.3074577748775482, 0.42919212579727173, 0.09672432392835617, -0.17622750997543335, 0.31143322587013245, -0.043638456612825394, 0.18778154253959656, -0.11105849593877792, -0.023495078086853027, 0.13594737648963928, 0.2227710634469986, 0.019956834614276886], [-0.017992565408349037, -0.25937169790267944, -0.20870552957057953, 0.28057336807250977, 0.18738970160484314, 0.2826201915740967, -0.1862751543521881, -0.21243155002593994, 0.18291285634040833, -0.20322896540164948, -0.11693772673606873, -0.02279437892138958, -0.08192266523838043, -0.0020411601290106773, 0.3284494876861572, -0.1713867485523224, 0.15808817744255066, 0.3555254340171814, 0.36309492588043213, -0.3310083746910095, 0.18133586645126343, -0.27073630690574646, 0.18218302726745605, -0.147220179438591, 0.1546899825334549, 0.37294381856918335, -0.4408206045627594, 0.0627894476056099, -0.05842827260494232, 0.04263442009687424, 0.11667300760746002, 0.2095637023448944, 0.1485472321510315, 0.26081225275993347, 0.18516597151756287, -0.07894051820039749, -0.027454759925603867, -0.10436297953128815, 0.04164277762174606, -0.10340967029333115, 0.2506192624568939, 0.22840683162212372, -0.1866152137517929, -0.25752460956573486, 0.06349063664674759, 0.03481174260377884, 0.06251384317874908, -0.09434813261032104, -0.0030068198684602976, -0.03038143925368786, -0.05283218249678612, 0.23618149757385254, 0.3144112825393677, 0.3163662850856781, 0.021308641880750656, 0.06576640903949738, 0.17135287821292877, 0.5096890926361084, -0.22555804252624512, 0.2963775098323822, 0.10125516355037689, 0.11595609784126282, -0.2977621555328369, 0.08628915250301361], [0.01309970486909151, -0.055637259036302567, -0.08140257000923157, 0.357082724571228, 0.1777382493019104, 0.3200385868549347, -0.024856822565197945, -0.21610845625400543, 0.26322615146636963, -0.17207999527454376, -0.154022678732872, -0.04924313351511955, -0.15663370490074158, 0.027384353801608086, 0.19354569911956787, -0.11405648291110992, 0.09914079308509827, 0.2382616549730301, 0.5905800461769104, -0.2873634696006775, 0.04656822979450226, -0.1378536969423294, 0.1777530014514923, 0.025734469294548035, 0.05305412784218788, 0.2859252691268921, -0.3990185856819153, -0.040910329669713974, 0.04652168229222298, 0.024869732558727264, 0.111656554043293, 0.1951947957277298, 0.018446369096636772, 0.2470681071281433, 0.032883718609809875, 0.06640788167715073, -0.1383216679096222, -0.030490132048726082, -0.006066308822482824, -0.010125981643795967, 0.19551104307174683, 0.23107296228408813, -0.3644465506076813, -0.16897666454315186, 0.06172134354710579, 0.05703318491578102, 0.0014129611663520336, -0.07856571674346924, 0.2158590704202652, 0.02029483951628208, -0.22349923849105835, 0.11626598984003067, 0.32882875204086304, 0.14733706414699554, 0.10639310628175735, -0.051153142005205154, 0.16341592371463776, 0.5878286361694336, -0.35776588320732117, 0.21212373673915863, -0.05231187120079994, 0.046830207109451294, -0.11401087790727615, 0.1449962556362152], [0.031176144257187843, -0.11223721504211426, -0.273781418800354, 0.3068908452987671, 0.32995566725730896, 0.5172510147094727, -0.12574484944343567, -0.20313528180122375, 0.04752059653401375, -0.23453861474990845, -0.11436119675636292, 0.08454976975917816, -0.23487506806850433, 0.07310090214014053, 0.3206060528755188, -0.12055654078722, 0.1475367248058319, 0.3225997984409332, 0.5780683159828186, -0.3800482451915741, -0.021689726039767265, -0.16075873374938965, 0.10052083432674408, -0.06333522498607635, 0.050033438950777054, 0.25808537006378174, -0.4573582410812378, 0.08783921599388123, -0.1911170333623886, -0.07327345013618469, 0.28301671147346497, 0.2323044091463089, 0.1318306028842926, 0.4860614836215973, 0.14023932814598083, 0.17400652170181274, -0.18676015734672546, -0.2575733959674835, 0.027043795213103294, -0.043296169489622116, 0.08021791279315948, 0.28831952810287476, -0.3554598391056061, -0.26523667573928833, 0.18346934020519257, -0.07406134158372879, 0.20075277984142303, -0.059813011437654495, 0.05838864669203758, -0.07162176817655563, -0.09354809671640396, 0.12309100478887558, 0.3134404718875885, 0.3818284869194031, 0.07069181650876999, -0.060205839574337006, 0.15031731128692627, 0.6270438432693481, -0.20465105772018433, 0.30627602338790894, 0.0674191266298294, 0.021334903314709663, -0.15405234694480896, 0.05860273540019989], [0.04786023870110512, 0.26320451498031616, -0.03832768648862839, -0.20929694175720215, 0.006427543703466654, -0.26274600625038147, 0.01332865096628666, 0.22169238328933716, -0.05117464065551758, 0.11432647705078125, 0.09892796725034714, -0.10503709316253662, -0.053439218550920486, -0.11652806401252747, -0.051206689327955246, 0.425334632396698, -0.16557036340236664, 0.18964913487434387, -0.0427502803504467, 0.41093531250953674, -0.09936273843050003, 0.22262130677700043, -0.06093321740627289, -0.02984955534338951, 0.01994338631629944, -0.31467145681381226, 0.2635725140571594, 0.09253416210412979, 0.37345603108406067, 0.19676651060581207, -0.0552714541554451, -0.0300064105540514, -0.06878768652677536, -0.31661105155944824, 0.13091716170310974, 0.5173956751823425, -0.02995779737830162, 0.3544495701789856, 0.0536174550652504, -0.04300474375486374, 0.11269181966781616, -0.03954685851931572, 0.16680528223514557, -0.04697088897228241, -0.12210702151060104, 0.20560461282730103, 0.24195247888565063, -0.11034812033176422, -0.3205896317958832, 0.07256048172712326, -0.10792165994644165, 0.03440022096037865, 0.18877898156642914, 0.3147638440132141, 0.21875067055225372, -0.14524857699871063, 0.2425355464220047, -0.18355785310268402, 0.3247993588447571, -0.21119080483913422, 0.1485818773508072, 0.09432688355445862, 0.250387966632843, 0.08467692136764526], [-0.17563946545124054, 0.08273963630199432, -0.09949897974729538, -0.1535128355026245, -0.25733301043510437, -0.3789089322090149, -0.09574075788259506, 0.1221846342086792, -0.15425114333629608, 0.09349869936704636, 0.13330577313899994, 0.03211050108075142, -0.06649483740329742, 0.16381345689296722, -0.40662461519241333, 0.32951387763023376, -0.013086198829114437, -0.1567641794681549, -0.3931945860385895, 0.27349331974983215, 0.1698567420244217, 0.2623395621776581, 0.1930139660835266, -0.016903722658753395, -0.11670521646738052, -0.30996760725975037, 0.3902522623538971, 0.23191620409488678, 0.24200883507728577, 0.03281519562005997, 0.06716793775558472, -0.011206744238734245, -0.16429677605628967, -0.32001373171806335, 0.0007800368475727737, 0.40608569979667664, 0.14369060099124908, 0.23107865452766418, 0.17072823643684387, -0.12016119062900543, -0.09705296158790588, 0.1203807145357132, 0.23363131284713745, 0.08391653746366501, -0.06412000209093094, -0.0529237762093544, 0.14971095323562622, 0.09515048563480377, 0.09785813093185425, -0.29165175557136536, 0.03949664533138275, -0.1070721298456192, -0.18639615178108215, 0.30556899309158325, -0.004185575991868973, 0.1661139726638794, 0.10580861568450928, -0.4766714572906494, 0.17883571982383728, -0.17364121973514557, -0.15101034939289093, -0.012004198506474495, 0.3003312945365906, 0.05266754329204559], [0.2497463971376419, -0.14928172528743744, 0.14868520200252533, 0.24758489429950714, 0.2579582929611206, 0.3157478868961334, 0.07115292549133301, -0.05527590215206146, 0.044452086091041565, 0.09723283350467682, -0.20503875613212585, -0.1298094242811203, -0.11036503314971924, -0.002393768634647131, 0.27201706171035767, -0.42267581820487976, 0.07058090716600418, 0.18601003289222717, 0.4104368984699249, -0.42575645446777344, 0.09515736252069473, -0.2617025375366211, 0.16535578668117523, -0.14824452996253967, 0.003738599829375744, 0.315948486328125, -0.3546002507209778, -0.0882592648267746, -0.3102283179759979, -0.006338669452816248, 0.17850355803966522, 0.24652594327926636, 0.03148679435253143, 0.319285124540329, 0.11710578948259354, -0.3094223439693451, -0.11204516887664795, -0.31022849678993225, 0.020249847322702408, 0.12441801279783249, 0.23587468266487122, 0.20433087646961212, -0.27652108669281006, -0.1296432614326477, 0.23812250792980194, -0.06693814694881439, -0.025230050086975098, -0.05817302316427231, 0.06602341681718826, 0.18078017234802246, 0.012008991092443466, 0.015983914956450462, 0.16898560523986816, 0.04847973957657814, -0.09910335391759872, 0.07891207188367844, 0.10032108426094055, 0.4574677050113678, -0.2049504965543747, 0.3054434359073639, 0.19567091763019562, 0.10768050700426102, -0.31907716393470764, 0.0005255032447166741], [0.04540136083960533, -0.08564257621765137, -0.28659045696258545, 0.3947112560272217, 0.2644469141960144, 0.3769999146461487, -0.0572330467402935, -0.18548832833766937, 0.20504911243915558, -0.17918570339679718, -0.4103458523750305, -0.02225314825773239, -0.015918653458356857, 0.047080885618925095, 0.4490607976913452, 0.05145244300365448, 0.05733315646648407, 0.2652719020843506, 0.6462645530700684, -0.16886621713638306, 0.00012245280959177762, -0.10059695690870285, 0.19932860136032104, -0.08089178800582886, 0.19383765757083893, 0.21968214213848114, -0.4070785641670227, 0.04972852021455765, -0.06285303086042404, -0.029687143862247467, 0.2478858232498169, 0.29605019092559814, -0.027381282299757004, 0.45006999373435974, 0.18436740338802338, -0.04047011584043503, -0.2289772629737854, -0.14273527264595032, -0.02991410344839096, -0.0895262211561203, 0.3381243050098419, 0.24703633785247803, -0.3593181371688843, -0.16722586750984192, 0.0825122594833374, -0.07662133127450943, 0.12447801232337952, -0.1184336245059967, 0.15654082596302032, -0.06814225018024445, -0.0794067308306694, 0.05100996419787407, 0.3866231441497803, 0.33089104294776917, 0.09079967439174652, -0.11426135152578354, 0.025862161070108414, 0.7268656492233276, -0.23523478209972382, 0.2808494567871094, -0.08944297581911087, 0.1409127414226532, -0.2834506928920746, 0.037714049220085144], [0.2508748173713684, -0.12106185406446457, 0.21777309477329254, 0.17043974995613098, 0.23742394149303436, 0.4157842695713043, 0.1842602640390396, -0.09215408563613892, -0.11835608631372452, -0.021194661036133766, -0.08337375521659851, 0.05772344768047333, 0.028350109234452248, -0.008756761439144611, 0.31063804030418396, -0.48059865832328796, 0.1374814808368683, 0.25476667284965515, 0.3635078966617584, -0.3510301113128662, -0.044244326651096344, -0.2420983761548996, -0.08531374484300613, -0.10961972922086716, -0.08521397411823273, 0.3486449420452118, -0.2729248106479645, -0.10812161862850189, -0.3773059844970703, 0.18810591101646423, 0.16212652623653412, 0.1721370369195938, 0.10277611017227173, 0.3745320737361908, -0.08527804166078568, -0.39212316274642944, 0.09042572975158691, -0.31216442584991455, -0.11947762221097946, 0.13452927768230438, 0.03524399176239967, 0.17516224086284637, -0.16424322128295898, 0.05326765775680542, 0.23093783855438232, 0.06907769292593002, -0.05699123069643974, -0.09179092943668365, -0.08918512612581253, 0.20085924863815308, 0.13221579790115356, 0.10158782452344894, 0.22250427305698395, -0.22322463989257812, -0.013629885390400887, 0.07216611504554749, 0.18706084787845612, 0.43506956100463867, -0.1555720716714859, 0.23647521436214447, 0.20171108841896057, -0.025746947154402733, -0.2703515887260437, -0.01150283869355917], [0.037653569132089615, -0.11122757941484451, -0.20462550222873688, 0.39914411306381226, 0.4651370048522949, 0.5718098282814026, -0.23213034868240356, -0.3372105062007904, 0.14221395552158356, -0.24883905053138733, -0.23944160342216492, -0.05398078262805939, -0.051687661558389664, -0.00778147904202342, 0.3783876895904541, -0.18737134337425232, 0.1827777922153473, 0.3093334436416626, 0.5852078199386597, -0.19626903533935547, 0.11375519633293152, -0.2578054666519165, 0.20506331324577332, -0.1802166998386383, 0.024077046662569046, 0.4000239670276642, -0.37180623412132263, 0.046022143214941025, -0.12991920113563538, 0.024869779124855995, 0.351019948720932, 0.23781511187553406, 0.19800256192684174, 0.47605934739112854, 0.17265914380550385, 0.06268338114023209, -0.26401716470718384, -0.023792056366801262, 0.1472439467906952, -0.10520747303962708, 0.2879544198513031, 0.3320050835609436, -0.29257258772850037, -0.2184116691350937, 0.17179539799690247, -0.00393692497164011, 0.19535164535045624, -0.02376481518149376, 0.14578185975551605, 0.02278069220483303, -0.3155333995819092, 0.23346681892871857, 0.356656938791275, 0.33711445331573486, 0.00216613058000803, -0.10269369930028915, 0.16218304634094238, 0.6999430060386658, -0.21474047005176544, 0.245452418923378, 0.02417982555925846, 0.08073420822620392, -0.32096168398857117, 0.17443843185901642], [0.09762398898601532, 0.2560093402862549, 0.09270865470170975, -0.1471286565065384, -0.10433919727802277, -0.345257967710495, 0.10877496004104614, 0.13437677919864655, 0.008040038868784904, -0.08442343771457672, 0.11691910773515701, -0.16640906035900116, -0.11551045626401901, -0.01968904584646225, -0.11371178925037384, 0.48656320571899414, -0.08936553448438644, 0.19942297041416168, -0.12771332263946533, 0.31254416704177856, -0.006077196914702654, 0.09909207373857498, -0.15285904705524445, 0.04901842772960663, 0.07309316843748093, -0.21837358176708221, 0.25796017050743103, -0.03481704741716385, 0.4530890882015228, 0.011589246802031994, -0.0695868656039238, -0.02979934774339199, 0.09891366958618164, -0.43032389879226685, 0.2564399242401123, 0.5273470282554626, 0.18408386409282684, 0.22718657553195953, -0.07674036920070648, 0.050746526569128036, 0.08038024604320526, -0.013974170200526714, 0.19718950986862183, 0.04372110962867737, -0.18673621118068695, 0.07691549509763718, 0.18197953701019287, 0.050574883818626404, -0.3519870340824127, -0.008754353038966656, -0.17397107183933258, 0.07587991654872894, 0.16480237245559692, 0.3595586121082306, 0.2151254415512085, -0.11018146574497223, 0.17149782180786133, -0.101231150329113, 0.209422767162323, -0.18403829634189606, 0.1107940822839737, 0.20422689616680145, 0.36473432183265686, 0.10091070830821991], [-0.10388623923063278, 0.23650425672531128, -0.008388826623558998, -0.24901153147220612, -0.04565851017832756, -0.27776432037353516, 0.10961544513702393, 0.20288079977035522, 0.05559808015823364, 0.06863275170326233, 0.2024737149477005, -0.10510444641113281, 0.009992426261305809, 0.034236736595630646, -0.11128813773393631, 0.5095276236534119, -0.12628094851970673, 0.23142217099666595, -0.21547213196754456, 0.47144967317581177, 0.04746319353580475, 0.35912448167800903, -0.2907436192035675, -0.10121941566467285, 0.05981802940368652, -0.3521183729171753, 0.47219356894493103, -0.04201638326048851, 0.5677235722541809, 0.023928707465529442, -0.0002593887329567224, 0.04079972580075264, -0.0316796749830246, -0.3709663450717926, 0.18658295273780823, 0.6372479200363159, 0.06402164697647095, 0.332379013299942, -0.045245103538036346, 0.06384813040494919, -0.011927402578294277, 0.13766126334667206, 0.27053290605545044, -0.1364099234342575, -0.28516632318496704, 0.12807106971740723, 0.2439023107290268, 0.031994760036468506, -0.4092542231082916, 0.20265530049800873, -0.12206491082906723, 0.044536374509334564, 0.13915511965751648, 0.3051861524581909, 0.20578938722610474, -0.17774800956249237, 0.3418804109096527, -0.019767792895436287, 0.4395010769367218, -0.21905238926410675, 0.13426989316940308, 0.12253613770008087, 0.2517928183078766, 0.16769328713417053], [0.07702938467264175, -0.3129718601703644, -0.12637577950954437, 0.4159056842327118, 0.3931306004524231, 0.49395063519477844, -0.2130565643310547, -0.39565935730934143, 0.24897125363349915, -0.3865276575088501, -0.371759295463562, -0.013492459431290627, -0.1268911361694336, 0.06074971333146095, 0.581398069858551, -0.27379101514816284, 0.05999372527003288, 0.48998451232910156, 0.5896891355514526, -0.31383442878723145, -0.012743151746690273, -0.5014635920524597, 0.18667586147785187, -0.08189038932323456, 0.0625445693731308, 0.4225219190120697, -0.32607710361480713, 0.05794163793325424, -0.050438281148672104, -0.03293570131063461, 0.25292763113975525, 0.1962096244096756, 0.07788006961345673, 0.36662012338638306, 0.10882554948329926, -0.08921299129724503, -0.4370095729827881, -0.20936308801174164, -0.09215723723173141, 0.12285370379686356, 0.20348113775253296, 0.21483224630355835, -0.3951800763607025, -0.2710641622543335, 0.2629735767841339, -0.042353034019470215, 0.12764091789722443, 0.011742292903363705, 0.058400169014930725, -0.18126767873764038, -0.16041751205921173, 0.22180330753326416, 0.46306103467941284, 0.22606420516967773, 0.04876438528299332, -0.09627994149923325, 0.20852477848529816, 0.5965302586555481, -0.4724046587944031, 0.19746306538581848, 0.13318994641304016, 0.015793059021234512, -0.26350921392440796, 0.06608892232179642], [-0.12018612027168274, 0.2903185486793518, -0.243338942527771, -0.3107166588306427, -0.37615829706192017, -0.3796021640300751, -0.12966200709342957, 0.14013591408729553, -0.07677584886550903, 0.033129047602415085, 0.29146358370780945, 0.11831995099782944, 0.09990527480840683, 0.1561041921377182, -0.4089341163635254, 0.5234172940254211, 0.1964256763458252, -0.17495062947273254, -0.5201455354690552, 0.30311766266822815, 0.20875434577465057, 0.31845739483833313, -0.03054852783679962, 0.07617711275815964, 0.009735825471580029, -0.362861305475235, 0.4017751216888428, 0.23224934935569763, 0.4527133107185364, 0.02151596173644066, -0.19208399951457977, -0.0800618827342987, -0.11894743144512177, -0.43392515182495117, -0.0024987072683870792, 0.41492316126823425, 0.02647312544286251, 0.34282562136650085, 0.19271725416183472, -0.19704855978488922, 0.042289748787879944, -0.12088876962661743, 0.2636667490005493, 0.0013614228228107095, -0.15878205001354218, 0.05547911673784256, 0.12513019144535065, 0.1619742065668106, 0.15800078213214874, -0.2574016749858856, 0.167469322681427, -0.059928905218839645, -0.20693087577819824, 0.15116004645824432, 0.0002048873429885134, 0.11368414759635925, -0.07608599215745926, -0.48048797249794006, 0.3492129147052765, -0.026405081152915955, -0.08684015274047852, 0.19680659472942352, 0.35432738065719604, -0.12923678755760193], [0.0938844084739685, 0.24410240352153778, 0.11970661580562592, -0.19423535466194153, -0.04495050385594368, -0.2865261733531952, 0.01762489601969719, 0.19401533901691437, 0.16606172919273376, -0.04094153642654419, 0.2466287612915039, -0.0861777514219284, -0.020213719457387924, -0.08492136001586914, -0.17192316055297852, 0.3314323425292969, -0.0887160524725914, 0.07278494536876678, -0.07154446840286255, 0.4506504237651825, -0.006136886775493622, 0.1213916689157486, -0.18797942996025085, -0.048996154218912125, -0.02186547964811325, -0.1379244029521942, 0.38379544019699097, -0.17107205092906952, 0.29848670959472656, 0.0833154171705246, -0.11877430975437164, 0.03336580842733383, -0.0027614987920969725, -0.13887009024620056, 0.33589601516723633, 0.5493518710136414, -0.03229580819606781, 0.3218478858470917, 0.007543152663856745, -0.03882557153701782, 0.04639991372823715, 0.020445702597498894, 0.15681655704975128, 0.02127060294151306, -0.06880524009466171, 0.21475978195667267, 0.22987063229084015, -0.1071956530213356, -0.036035507917404175, 0.141128271818161, -0.033313434571027756, 0.07768973708152771, 0.17519992589950562, 0.34517931938171387, 0.2020898461341858, -0.24298030138015747, 0.36599040031433105, -0.15907150506973267, 0.2993467450141907, -0.12105357646942139, 0.12293476611375809, 0.014252581633627415, 0.26765888929367065, 0.18599633872509003], [-0.22823962569236755, 0.3368512690067291, -0.09032810479402542, -0.30987998843193054, -0.2140565663576126, -0.3335123658180237, -0.2859404981136322, 0.03305834159255028, -0.16359154880046844, 0.1150972992181778, 0.20051439106464386, 0.17731346189975739, -0.04988756775856018, 0.15904155373573303, -0.3966773450374603, 0.539104163646698, 0.22572363913059235, -0.18335171043872833, -0.5106978416442871, 0.4725073575973511, 0.36531469225883484, 0.25475573539733887, 0.061646778136491776, 0.10536391288042068, -0.13492432236671448, -0.3106527328491211, 0.357557475566864, 0.02510719932615757, 0.3989730775356293, -0.14834970235824585, -0.0707123801112175, -0.030013656243681908, -0.14187484979629517, -0.42229413986206055, 0.12098350375890732, 0.358085036277771, 0.05509055033326149, 0.2191268801689148, 0.15290069580078125, -0.16729865968227386, -0.17025578022003174, -0.0015569227980449796, 0.26383572816848755, 0.041566282510757446, -0.013204356655478477, 0.13595272600650787, 0.06246175616979599, 0.041959114372730255, 0.13239434361457825, -0.12707401812076569, 0.029104894027113914, -0.09635021537542343, -0.23066557943820953, 0.2792649269104004, 0.01376329455524683, 0.15782997012138367, 0.11405225098133087, -0.5241511464118958, 0.15033777058124542, -0.18367768824100494, -0.13915638625621796, 0.1772303730249405, 0.18972918391227722, -0.06866245716810226]], "network.2.bias": [-0.05232461914420128, 0.067143015563488, 0.18915405869483948, 0.07180812209844589, -0.14381614327430725, 0.0935722216963768, 0.130130797624588, 0.0349152535200119, 0.09438957273960114, 0.0023822246585041285, -0.026687446981668472, -0.025013264268636703, -0.13847637176513672, -0.052729178220033646, 0.10689088702201843, 0.0407894104719162, 0.147743359208107, 0.03362760320305824, -0.04660613462328911, 0.033168207854032516, -0.05219147726893425, -0.13078813254833221, -0.16962064802646637, 0.16432690620422363, -0.13073164224624634, -0.023224933072924614, -0.17964424192905426, -0.09325292706489563, -0.06484895944595337, -0.17163905501365662, 0.12710510194301605, -0.12339139729738235, -0.009722840040922165, -0.05653861537575722, -0.12564480304718018, -0.1663578748703003, -0.08637712150812149, 0.030890516936779022, 0.1335049867630005, -0.08677131682634354, 0.12079042941331863, -0.0046907225623726845, 0.04514628276228905, 0.13610289990901947, 0.26136451959609985, 0.10325486958026886, -0.0013681849231943488, -0.07842127233743668, -0.17133569717407227, -0.13884223997592926, -0.0944828987121582, -0.11601424217224121, -0.014734717085957527, 0.07560102641582489, -0.1536453515291214, -0.014032859355211258, -0.06433351337909698, -0.10753089189529419, -0.1677992194890976, -0.06005258858203888, -0.05378815531730652, 0.07341081649065018, -0.14953653514385223, -0.015239866450428963], "network.4.weight": [[-0.526457667350769, 0.5159990191459656, -0.39596596360206604, 0.4006460905075073, -0.5557040572166443, -0.465120404958725, -0.39126521348953247, 0.42281004786491394, -0.5088213086128235, -0.43139487504959106, -0.3923412561416626, -0.320932537317276, -0.6675373315811157, 0.4981510043144226, 0.558474600315094, -0.21085934340953827, 0.29162317514419556, -0.4814819395542145, 0.5067675709724426, 0.5382611751556396, -0.30810728669166565, 0.5834365487098694, 0.575631856918335, -0.49160927534103394, -0.4257901608943939, -0.44012558460235596, 0.5512011051177979, -0.35632646083831787, 0.6181579828262329, -0.37406137585639954, 0.5031139850616455, -0.3447147607803345, -0.4478191137313843, 0.4242708683013916, -0.11305779963731766, -0.2819107472896576, -0.5520014762878418, -0.42657217383384705, -0.44015079736709595, 0.12795574963092804, 0.5550808310508728, -0.3546176850795746, -0.599330484867096, 0.4420646131038666, 0.5115639567375183, -0.46633273363113403, 0.2549203634262085, -0.5642213225364685, -0.43222448229789734, 0.47480884194374084, 0.47218742966651917, 0.6273884773254395, -0.5243727564811707, -0.34282156825065613, 0.4255908727645874, 0.5446059703826904, 0.36978745460510254, 0.46880877017974854, -0.4866824150085449, -0.5524014830589294, 0.7360448837280273, -0.4156995415687561, -0.4066178798675537, -0.5272952318191528]], "network.4.bias": [0.10359476506710052]}, "metrics": {"accuracy": 0.9875, "train_time_s": 1.7559118999997736}}, "CPN_4": {"model_type": "CPN", "architecture": "K=100, mode=augmented_unit_sphere", "state_dict": {"kohonen_weights": [[0.8928706049919128, -0.20516613125801086, 0.40086039900779724], [0.15936844050884247, 0.6999672055244446, -0.6961663961410522], [-0.9439582824707031, 0.33004865050315857, 0.003262367332354188], [-0.32771816849708557, 0.026502035558223724, -0.9444037079811096], [0.4751317501068115, 0.44797658920288086, 0.7573419213294983], [-0.31528085470199585, 0.8731793165206909, 0.3716931641101837], [-0.8938063979148865, -0.44845303893089294, 8.176083792932332e-05], [-0.35041293501853943, 0.6957986950874329, 0.6269568800926208], [-0.09112609177827835, 0.9958370923995972, 0.0021279542706906796], [-0.6925418972969055, -0.4053651690483093, -0.5967116355895996], [-0.3856189548969269, -0.4495706856250763, 0.8057196736335754], [-0.5870485305786133, -0.391305148601532, 0.7086990475654602], [0.01402274239808321, -0.6037396192550659, -0.7970582842826843], [0.15048789978027344, -0.4836448132991791, 0.8622303009033203], [0.3601328432559967, -0.322906494140625, 0.8752346634864807], [-0.9129748940467834, 0.2983497381210327, -0.27832382917404175], [0.0463385246694088, -0.3020620048046112, -0.9521613717079163], [-0.11843431740999222, -0.4264541566371918, 0.8967218995094299], [0.3658430874347687, 0.1984516829252243, -0.9092721343040466], [0.7266051173210144, -0.686996340751648, 0.009008948691189289], [0.2914431095123291, 0.8994996547698975, -0.32551687955856323], [-0.19667010009288788, -0.09795385599136353, -0.9755644202232361], [0.0465267077088356, -0.0352097749710083, -0.9982962608337402], [-0.35007303953170776, -0.8118435144424438, 0.4672889709472656], [-0.6806348562240601, 0.5706813931465149, 0.4594115912914276], [-0.08747586607933044, -0.4001178741455078, -0.9122794270515442], [0.17299872636795044, -0.4295240342617035, -0.8863297700881958], [-0.9599108099937439, 0.06332853436470032, -0.273058146238327], [-0.790042519569397, -0.18791967630386353, 0.583540141582489], [-0.574692964553833, 0.06000848114490509, 0.8161660432815552], [0.9165221452713013, 0.3999815881252289, 0.0013722460716962814], [0.31651565432548523, -0.6946508884429932, 0.6459705829620361], [-0.19215363264083862, -0.21265383064746857, 0.9580476880073547], [-0.15698888897895813, 0.8147600889205933, 0.5581402778625488], [-0.6212491393089294, 0.7460613250732422, -0.2396707981824875], [-0.7286938428878784, -0.039566878229379654, 0.6836956739425659], [-0.4287503957748413, -0.654570460319519, -0.6226641535758972], [0.31381094455718994, -0.21543549001216888, -0.9247217178344727], [-0.30342188477516174, 0.9528563618659973, 0.00010578711226116866], [-0.7107738256454468, 0.598266065120697, -0.3699706196784973], [0.32745200395584106, 0.10999202728271484, 0.9384438991546631], [-0.5099288821220398, 0.8602165579795837, 0.00013331598893273622], [0.9973075985908508, -0.07320738583803177, 0.004275748506188393], [0.8724963665008545, -0.48862069845199585, 0.00010724178719101474], [0.8970687985420227, 0.2643370032310486, 0.35410958528518677], [0.1395997852087021, 0.4233003854751587, 0.8951696753501892], [-0.26596978306770325, -0.6925053596496582, 0.6705940961837769], [0.6789106130599976, -0.5830914974212646, -0.44618913531303406], [-0.12312348186969757, -0.8872765302658081, 0.44450080394744873], [-0.7791206240653992, 0.1360035389661789, 0.6119428873062134], [0.4298679530620575, -0.49492427706718445, -0.7551578879356384], [0.14373692870140076, 0.8528772592544556, 0.5019363760948181], [-0.20492325723171234, -0.978778064250946, 0.00011960741539951414], [0.23793461918830872, 0.9712811708450317, -4.717388257802213e-09], [-0.1512998342514038, -0.8562654852867126, -0.49388039112091064], [0.10302790254354477, -0.9946732521057129, 0.003226692322641611], [0.2049950510263443, 0.6135972142219543, 0.7625454068183899], [0.8797880411148071, -0.16815011203289032, -0.4446330666542053], [-0.5946581363677979, -0.7002741694450378, 0.3949655294418335], [-0.48513680696487427, -0.24622154235839844, -0.8390573263168335], [0.7375549674034119, 0.05178390070796013, 0.6732986569404602], [-0.1537497490644455, -0.4557715058326721, -0.8767173290252686], [-0.8484073281288147, 0.4679749310016632, -0.24739524722099304], [0.04994739592075348, -0.7937642931938171, 0.6061712503433228], [0.3169761002063751, 0.4250265061855316, -0.8478670716285706], [0.5376090407371521, -0.033029843121767044, 0.8425471186637878], [-0.8869792819023132, -0.3908832371234894, 0.2459227740764618], [-0.057681772857904434, 0.17576032876968384, 0.98274165391922], [-0.677419126033783, 0.7355972528457642, 6.749471504008397e-05], [0.6437125205993652, -0.4494263231754303, 0.6193950176239014], [-0.2547420859336853, -0.007794906385242939, 0.9669776558876038], [-0.8278523087501526, 0.5609292387962341, 0.0043592811562120914], [0.6012870073318481, 0.4877493977546692, -0.6328936815261841], [0.4854643940925598, 0.8734710812568665, 0.03704923763871193], [0.9922413229942322, 0.12415337562561035, 0.0065603107213974], [-0.9453037977218628, -0.007531868293881416, 0.32610443234443665], [-0.6492285132408142, -0.4637301564216614, -0.602873682975769], [0.7106654644012451, -0.48297786712646484, -0.5115535259246826], [-0.40587300062179565, -0.6559323072433472, -0.636411726474762], [0.632267951965332, 0.7101007699966431, 0.3098292052745819], [-0.4978066086769104, -0.2849174737930298, -0.8191524147987366], [-0.6670429110527039, 0.12475517392158508, -0.7344997525215149], [-0.7312025427818298, -0.6821604371070862, 9.720842353999615e-05], [0.9567577838897705, -0.2908857464790344, 9.980830509448424e-05], 